digraph Tree {
node [shape=box] ;
0 [label="regn_enc <= 11.5\ngini = 0.2922\nsamples = 40351\nvalue = [33340, 645, 1, 6364, 1]\nclass = cheap"] ;
1 [label="wnry_enc <= 80.5\ngini = 0.195\nsamples = 33599\nvalue = [29945, 179, 1, 3474, 0]\nclass = cheap"] ;
0 -> 1 [labeldistance=2.5, labelangle=45, headlabel="True"] ;
2 [label="var_enc <= 661.0\ngini = 0.3985\nsamples = 6444\nvalue = [4756, 161, 0, 1527, 0]\nclass = cheap"] ;
1 -> 2 ;
3 [label="gini = 0.2253\nsamples = 2442\nvalue = [2128, 12, 0, 302, 0]\nclass = cheap"] ;
2 -> 3 ;
4 [label="gini = 0.4737\nsamples = 4002\nvalue = [2628, 149, 0, 1225, 0]\nclass = cheap"] ;
2 -> 4 ;
5 [label="regn_enc <= 8.5\ngini = 0.1344\nsamples = 27155\nvalue = [25189, 18, 1, 1947, 0]\nclass = cheap"] ;
1 -> 5 ;
6 [label="gini = 0.0853\nsamples = 19405\nvalue = [18539, 6, 0, 860, 0]\nclass = cheap"] ;
5 -> 6 ;
7 [label="gini = 0.2441\nsamples = 7750\nvalue = [6650, 12, 1, 1087, 0]\nclass = cheap"] ;
5 -> 7 ;
8 [label="wnry_enc <= 80.5\ngini = 0.5592\nsamples = 6752\nvalue = [3395, 466, 0, 2890, 1]\nclass = cheap"] ;
0 -> 8 [labeldistance=2.5, labelangle=-45, headlabel="False"] ;
9 [label="prov_enc <= 157.0\ngini = 0.6014\nsamples = 2031\nvalue = [541, 396, 0, 1093, 1]\nclass = very expensive"] ;
8 -> 9 ;
10 [label="gini = 0.5816\nsamples = 1602\nvalue = [308, 379, 0, 914, 1]\nclass = very expensive"] ;
9 -> 10 ;
11 [label="gini = 0.5293\nsamples = 429\nvalue = [233, 17, 0, 179, 0]\nclass = cheap"] ;
9 -> 11 ;
12 [label="regn_enc <= 13.5\ngini = 0.4894\nsamples = 4721\nvalue = [2854, 70, 0, 1797, 0]\nclass = cheap"] ;
8 -> 12 ;
13 [label="gini = 0.4352\nsamples = 3451\nvalue = [2367, 24, 0, 1060, 0]\nclass = cheap"] ;
12 -> 13 ;
14 [label="gini = 0.5149\nsamples = 1270\nvalue = [487, 46, 0, 737, 0]\nclass = very expensive"] ;
12 -> 14 ;
}