digraph Tree {
node [shape=box] ;
0 [label="X[2] <= 11.5\nmse = 1.1965\nsamples = 40351\nvalue = 0.4893"] ;
1 [label="X[4] <= 80.5\nmse = 0.8364\nsamples = 33599\nvalue = 0.3156"] ;
0 -> 1 [labeldistance=2.5, labelangle=45, headlabel="True"] ;
2 [label="X[3] <= 661.0\nmse = 1.6161\nsamples = 6444\nvalue = 0.7359"] ;
1 -> 2 ;
3 [label="X[2] <= 9.5\nmse = 0.9766\nsamples = 2442\nvalue = 0.3759"] ;
2 -> 3 ;
4 [label="mse = 0.7366\nsamples = 1918\nvalue = 0.2732"] ;
3 -> 4 ;
5 [label="mse = 1.6751\nsamples = 524\nvalue = 0.7519"] ;
3 -> 5 ;
6 [label="X[2] <= 7.5\nmse = 1.8791\nsamples = 4002\nvalue = 0.9555"] ;
2 -> 6 ;
7 [label="mse = 1.5075\nsamples = 2059\nvalue = 0.6571"] ;
6 -> 7 ;
8 [label="mse = 2.0785\nsamples = 1943\nvalue = 1.2717"] ;
6 -> 8 ;
9 [label="X[2] <= 8.5\nmse = 0.5995\nsamples = 27155\nvalue = 0.2158"] ;
1 -> 9 ;
10 [label="X[1] <= 26.0\nmse = 0.3814\nsamples = 19405\nvalue = 0.1333"] ;
9 -> 10 ;
11 [label="mse = 0.1306\nsamples = 8089\nvalue = 0.0443"] ;
10 -> 11 ;
12 [label="mse = 0.551\nsamples = 11316\nvalue = 0.1969"] ;
10 -> 12 ;
13 [label="X[4] <= 420.5\nmse = 1.0858\nsamples = 7750\nvalue = 0.4226"] ;
9 -> 13 ;
14 [label="mse = 1.3546\nsamples = 5050\nvalue = 0.5562"] ;
13 -> 14 ;
15 [label="mse = 0.4872\nsamples = 2700\nvalue = 0.1726"] ;
13 -> 15 ;
16 [label="X[2] <= 13.5\nmse = 2.0911\nsamples = 6752\nvalue = 1.3537"] ;
0 -> 16 [labeldistance=2.5, labelangle=-45, headlabel="False"] ;
17 [label="X[4] <= 420.5\nmse = 2.0463\nsamples = 4755\nvalue = 1.1399"] ;
16 -> 17 ;
18 [label="X[4] <= 80.5\nmse = 2.1243\nsamples = 3775\nvalue = 1.3168"] ;
17 -> 18 ;
19 [label="mse = 1.9771\nsamples = 1304\nvalue = 1.6994"] ;
18 -> 19 ;
20 [label="mse = 2.0839\nsamples = 2471\nvalue = 1.1149"] ;
18 -> 20 ;
21 [label="X[4] <= 491.5\nmse = 1.1605\nsamples = 980\nvalue = 0.4582"] ;
17 -> 21 ;
22 [label="mse = 0.5022\nsamples = 236\nvalue = 0.178"] ;
21 -> 22 ;
23 [label="mse = 1.3365\nsamples = 744\nvalue = 0.547"] ;
21 -> 23 ;
24 [label="X[4] <= 420.5\nmse = 1.8299\nsamples = 1997\nvalue = 1.8628"] ;
16 -> 24 ;
25 [label="X[5] <= 13377.5\nmse = 1.7226\nsamples = 1691\nvalue = 1.9456"] ;
24 -> 25 ;
26 [label="mse = 1.7421\nsamples = 1575\nvalue = 1.8984"] ;
25 -> 26 ;
27 [label="mse = 1.0184\nsamples = 116\nvalue = 2.5862"] ;
25 -> 27 ;
28 [label="X[4] <= 463.5\nmse = 2.1757\nsamples = 306\nvalue = 1.4052"] ;
24 -> 28 ;
29 [label="mse = 1.1716\nsamples = 39\nvalue = 0.4615"] ;
28 -> 29 ;
30 [label="mse = 2.1732\nsamples = 267\nvalue = 1.5431"] ;
28 -> 30 ;
}