digraph Tree {
node [shape=box] ;
0 [label="X[2] <= 11.5\nmse = 1.1965\nsamples = 40351\nvalue = 0.4893"] ;
1 [label="X[4] <= 80.5\nmse = 0.8364\nsamples = 33599\nvalue = 0.3156"] ;
0 -> 1 [labeldistance=2.5, labelangle=45, headlabel="True"] ;
2 [label="X[3] <= 661.0\nmse = 1.6161\nsamples = 6444\nvalue = 0.7359"] ;
1 -> 2 ;
3 [label="X[2] <= 9.5\nmse = 0.9766\nsamples = 2442\nvalue = 0.3759"] ;
2 -> 3 ;
4 [label="X[1] <= 1438.5\nmse = 0.7366\nsamples = 1918\nvalue = 0.2732"] ;
3 -> 4 ;
5 [label="X[3] <= 473.5\nmse = 0.4359\nsamples = 965\nvalue = 0.1554"] ;
4 -> 5 ;
6 [label="X[5] <= 13191.0\nmse = 0.3057\nsamples = 798\nvalue = 0.1065"] ;
5 -> 6 ;
7 [label="X[2] <= 7.5\nmse = 0.2432\nsamples = 759\nvalue = 0.0843"] ;
6 -> 7 ;
8 [label="X[3] <= 53.5\nmse = 0.1387\nsamples = 575\nvalue = 0.047"] ;
7 -> 8 ;
9 [label="X[5] <= 7155.5\nmse = 0.5173\nsamples = 98\nvalue = 0.1837"] ;
8 -> 9 ;
10 [label="mse = 0.0\nsamples = 43\nvalue = 0.0"] ;
9 -> 10 ;
11 [label="X[5] <= 7287.0\nmse = 0.8747\nsamples = 55\nvalue = 0.3273"] ;
9 -> 11 ;
12 [label="mse = 1.6875\nsamples = 4\nvalue = 2.25"] ;
11 -> 12 ;
13 [label="X[3] <= 36.5\nmse = 0.4983\nsamples = 51\nvalue = 0.1765"] ;
11 -> 13 ;
14 [label="X[2] <= 5.5\nmse = 0.3743\nsamples = 46\nvalue = 0.1304"] ;
13 -> 14 ;
15 [label="mse = 0.0\nsamples = 27\nvalue = 0.0"] ;
14 -> 15 ;
16 [label="X[5] <= 8316.5\nmse = 0.8476\nsamples = 19\nvalue = 0.3158"] ;
14 -> 16 ;
17 [label="mse = 0.0\nsamples = 6\nvalue = 0.0"] ;
16 -> 17 ;
18 [label="X[5] <= 11465.0\nmse = 1.1716\nsamples = 13\nvalue = 0.4615"] ;
16 -> 18 ;
19 [label="X[2] <= 6.5\nmse = 1.5556\nsamples = 9\nvalue = 0.6667"] ;
18 -> 19 ;
20 [label="mse = 1.6875\nsamples = 4\nvalue = 0.75"] ;
19 -> 20 ;
21 [label="mse = 1.44\nsamples = 5\nvalue = 0.6"] ;
19 -> 21 ;
22 [label="mse = 0.0\nsamples = 4\nvalue = 0.0"] ;
18 -> 22 ;
23 [label="mse = 1.44\nsamples = 5\nvalue = 0.6"] ;
13 -> 23 ;
24 [label="X[2] <= 6.5\nmse = 0.0562\nsamples = 477\nvalue = 0.0189"] ;
8 -> 24 ;
25 [label="X[5] <= 9927.5\nmse = 0.0232\nsamples = 387\nvalue = 0.0078"] ;
24 -> 25 ;
26 [label="mse = 0.0\nsamples = 296\nvalue = 0.0"] ;
25 -> 26 ;
27 [label="X[5] <= 10190.0\nmse = 0.0978\nsamples = 91\nvalue = 0.033"] ;
25 -> 27 ;
28 [label="mse = 1.44\nsamples = 5\nvalue = 0.6"] ;
27 -> 28 ;
29 [label="mse = 0.0\nsamples = 86\nvalue = 0.0"] ;
27 -> 29 ;
30 [label="X[5] <= 7329.5\nmse = 0.1956\nsamples = 90\nvalue = 0.0667"] ;
24 -> 30 ;
31 [label="X[5] <= 6744.0\nmse = 0.321\nsamples = 54\nvalue = 0.1111"] ;
30 -> 31 ;
32 [label="X[5] <= 5504.0\nmse = 0.1764\nsamples = 50\nvalue = 0.06"] ;
31 -> 32 ;
33 [label="mse = 0.0\nsamples = 35\nvalue = 0.0"] ;
32 -> 33 ;
34 [label="X[5] <= 5950.5\nmse = 0.56\nsamples = 15\nvalue = 0.2"] ;
32 -> 34 ;
35 [label="mse = 1.6875\nsamples = 4\nvalue = 0.75"] ;
34 -> 35 ;
36 [label="mse = 0.0\nsamples = 11\nvalue = 0.0"] ;
34 -> 36 ;
37 [label="mse = 1.6875\nsamples = 4\nvalue = 0.75"] ;
31 -> 37 ;
38 [label="mse = 0.0\nsamples = 36\nvalue = 0.0"] ;
30 -> 38 ;
39 [label="X[0] <= 157.0\nmse = 0.552\nsamples = 184\nvalue = 0.2011"] ;
7 -> 39 ;
40 [label="X[3] <= 50.5\nmse = 1.0197\nsamples = 77\nvalue = 0.4026"] ;
39 -> 40 ;
41 [label="X[5] <= 7431.5\nmse = 0.2645\nsamples = 33\nvalue = 0.0909"] ;
40 -> 41 ;
42 [label="X[5] <= 6078.0\nmse = 0.5969\nsamples = 14\nvalue = 0.2143"] ;
41 -> 42 ;
43 [label="mse = 0.0\nsamples = 9\nvalue = 0.0"] ;
42 -> 43 ;
44 [label="mse = 1.44\nsamples = 5\nvalue = 0.6"] ;
42 -> 44 ;
45 [label="mse = 0.0\nsamples = 19\nvalue = 0.0"] ;
41 -> 45 ;
46 [label="X[3] <= 96.5\nmse = 1.4587\nsamples = 44\nvalue = 0.6364"] ;
40 -> 46 ;
47 [label="mse = 2.16\nsamples = 5\nvalue = 1.8"] ;
46 -> 47 ;
48 [label="X[3] <= 367.5\nmse = 1.1729\nsamples = 39\nvalue = 0.4872"] ;
46 -> 48 ;
49 [label="X[3] <= 283.0\nmse = 1.5418\nsamples = 27\nvalue = 0.7037"] ;
48 -> 49 ;
50 [label="X[5] <= 6881.0\nmse = 0.7438\nsamples = 22\nvalue = 0.2727"] ;
49 -> 50 ;
51 [label="X[3] <= 143.5\nmse = 1.3388\nsamples = 11\nvalue = 0.5455"] ;
50 -> 51 ;
52 [label="mse = 0.0\nsamples = 5\nvalue = 0.0"] ;
51 -> 52 ;
53 [label="mse = 2.0\nsamples = 6\nvalue = 1.0"] ;
51 -> 53 ;
54 [label="mse = 0.0\nsamples = 11\nvalue = 0.0"] ;
50 -> 54 ;
55 [label="mse = 0.64\nsamples = 5\nvalue = 2.6"] ;
49 -> 55 ;
56 [label="mse = 0.0\nsamples = 12\nvalue = 0.0"] ;
48 -> 56 ;
57 [label="X[2] <= 8.5\nmse = 0.1651\nsamples = 107\nvalue = 0.0561"] ;
39 -> 57 ;
58 [label="mse = 0.0\nsamples = 66\nvalue = 0.0"] ;
57 -> 58 ;
59 [label="X[5] <= 5330.5\nmse = 0.4176\nsamples = 41\nvalue = 0.1463"] ;
57 -> 59 ;
60 [label="mse = 0.0\nsamples = 15\nvalue = 0.0"] ;
59 -> 60 ;
61 [label="X[5] <= 6401.0\nmse = 0.6391\nsamples = 26\nvalue = 0.2308"] ;
59 -> 61 ;
62 [label="mse = 1.6875\nsamples = 4\nvalue = 0.75"] ;
61 -> 62 ;
63 [label="X[5] <= 10315.5\nmse = 0.3905\nsamples = 22\nvalue = 0.1364"] ;
61 -> 63 ;
64 [label="mse = 0.0\nsamples = 11\nvalue = 0.0"] ;
63 -> 64 ;
65 [label="X[5] <= 11527.5\nmse = 0.7438\nsamples = 11\nvalue = 0.2727"] ;
63 -> 65 ;
66 [label="mse = 1.6875\nsamples = 4\nvalue = 0.75"] ;
65 -> 66 ;
67 [label="mse = 0.0\nsamples = 7\nvalue = 0.0"] ;
65 -> 67 ;
68 [label="X[3] <= 97.0\nmse = 1.3254\nsamples = 39\nvalue = 0.5385"] ;
6 -> 68 ;
69 [label="mse = 2.25\nsamples = 6\nvalue = 1.5"] ;
68 -> 69 ;
70 [label="X[5] <= 13307.0\nmse = 0.9587\nsamples = 33\nvalue = 0.3636"] ;
68 -> 70 ;
71 [label="mse = 2.16\nsamples = 5\nvalue = 1.2"] ;
70 -> 71 ;
72 [label="X[5] <= 13569.0\nmse = 0.5969\nsamples = 28\nvalue = 0.2143"] ;
70 -> 72 ;
73 [label="mse = 0.0\nsamples = 23\nvalue = 0.0"] ;
72 -> 73 ;
74 [label="mse = 2.16\nsamples = 5\nvalue = 1.2"] ;
72 -> 74 ;
75 [label="X[3] <= 474.5\nmse = 0.9922\nsamples = 167\nvalue = 0.3892"] ;
5 -> 75 ;
76 [label="X[5] <= 5380.5\nmse = 0.9097\nsamples = 24\nvalue = 2.5833"] ;
75 -> 76 ;
77 [label="mse = 2.16\nsamples = 5\nvalue = 1.8"] ;
76 -> 77 ;
78 [label="X[5] <= 9416.0\nmse = 0.3767\nsamples = 19\nvalue = 2.7895"] ;
76 -> 78 ;
79 [label="mse = 0.75\nsamples = 8\nvalue = 2.5"] ;
78 -> 79 ;
80 [label="mse = 0.0\nsamples = 11\nvalue = 3.0"] ;
78 -> 80 ;
81 [label="X[5] <= 823.0\nmse = 0.0625\nsamples = 143\nvalue = 0.021"] ;
75 -> 81 ;
82 [label="mse = 1.6875\nsamples = 4\nvalue = 0.75"] ;
81 -> 82 ;
83 [label="mse = 0.0\nsamples = 139\nvalue = 0.0"] ;
81 -> 83 ;
84 [label="X[0] <= 163.0\nmse = 1.0128\nsamples = 953\nvalue = 0.3924"] ;
4 -> 84 ;
85 [label="X[5] <= 10631.0\nmse = 1.2618\nsamples = 581\nvalue = 0.5146"] ;
84 -> 85 ;
86 [label="X[5] <= 8867.5\nmse = 1.0793\nsamples = 453\nvalue = 0.4283"] ;
85 -> 86 ;
87 [label="X[5] <= 8752.5\nmse = 1.2203\nsamples = 371\nvalue = 0.496"] ;
86 -> 87 ;
88 [label="X[2] <= 4.5\nmse = 1.1369\nsamples = 351\nvalue = 0.4558"] ;
87 -> 88 ;
89 [label="X[5] <= 970.0\nmse = 0.4937\nsamples = 103\nvalue = 0.1748"] ;
88 -> 89 ;
90 [label="X[3] <= 486.0\nmse = 1.6875\nsamples = 12\nvalue = 0.75"] ;
89 -> 90 ;
91 [label="mse = 2.2041\nsamples = 7\nvalue = 1.2857"] ;
90 -> 91 ;
92 [label="mse = 0.0\nsamples = 5\nvalue = 0.0"] ;
90 -> 92 ;
93 [label="X[1] <= 3073.0\nmse = 0.2869\nsamples = 91\nvalue = 0.0989"] ;
89 -> 93 ;
94 [label="mse = 1.6875\nsamples = 4\nvalue = 0.75"] ;
93 -> 94 ;
95 [label="X[5] <= 6583.5\nmse = 0.2021\nsamples = 87\nvalue = 0.069"] ;
93 -> 95 ;
96 [label="mse = 0.0\nsamples = 57\nvalue = 0.0"] ;
95 -> 96 ;
97 [label="X[5] <= 6695.0\nmse = 0.56\nsamples = 30\nvalue = 0.2"] ;
95 -> 97 ;
98 [label="mse = 1.6875\nsamples = 4\nvalue = 0.75"] ;
97 -> 98 ;
99 [label="X[1] <= 7480.5\nmse = 0.3328\nsamples = 26\nvalue = 0.1154"] ;
97 -> 99 ;
100 [label="mse = 1.25\nsamples = 6\nvalue = 0.5"] ;
99 -> 100 ;
101 [label="mse = 0.0\nsamples = 20\nvalue = 0.0"] ;
99 -> 101 ;
102 [label="X[1] <= 26863.5\nmse = 1.3576\nsamples = 248\nvalue = 0.5726"] ;
88 -> 102 ;
103 [label="X[1] <= 15849.0\nmse = 1.3291\nsamples = 244\nvalue = 0.5533"] ;
102 -> 103 ;
104 [label="X[1] <= 15555.5\nmse = 1.5477\nsamples = 135\nvalue = 0.6889"] ;
103 -> 104 ;
105 [label="X[5] <= 1143.0\nmse = 1.4268\nsamples = 131\nvalue = 0.6183"] ;
104 -> 105 ;
106 [label="X[2] <= 8.5\nmse = 2.0942\nsamples = 19\nvalue = 1.1053"] ;
105 -> 106 ;
107 [label="X[1] <= 3877.5\nmse = 1.76\nsamples = 15\nvalue = 0.8"] ;
106 -> 107 ;
108 [label="mse = 0.0\nsamples = 4\nvalue = 0.0"] ;
107 -> 108 ;
109 [label="X[1] <= 9630.0\nmse = 2.0826\nsamples = 11\nvalue = 1.0909"] ;
107 -> 109 ;
110 [label="mse = 2.2041\nsamples = 7\nvalue = 1.7143"] ;
109 -> 110 ;
111 [label="mse = 0.0\nsamples = 4\nvalue = 0.0"] ;
109 -> 111 ;
112 [label="mse = 1.6875\nsamples = 4\nvalue = 2.25"] ;
106 -> 112 ;
113 [label="X[5] <= 2397.0\nmse = 1.2666\nsamples = 112\nvalue = 0.5357"] ;
105 -> 113 ;
114 [label="X[3] <= 435.5\nmse = 0.0454\nsamples = 21\nvalue = 0.0476"] ;
113 -> 114 ;
115 [label="mse = 0.0\nsamples = 12\nvalue = 0.0"] ;
114 -> 115 ;
116 [label="X[3] <= 557.0\nmse = 0.0988\nsamples = 9\nvalue = 0.1111"] ;
114 -> 116 ;
117 [label="mse = 0.1875\nsamples = 4\nvalue = 0.25"] ;
116 -> 117 ;
118 [label="mse = 0.0\nsamples = 5\nvalue = 0.0"] ;
116 -> 118 ;
119 [label="X[3] <= 143.5\nmse = 1.4807\nsamples = 91\nvalue = 0.6484"] ;
113 -> 119 ;
120 [label="X[5] <= 7239.0\nmse = 0.724\nsamples = 34\nvalue = 0.2647"] ;
119 -> 120 ;
121 [label="mse = 0.0\nsamples = 27\nvalue = 0.0"] ;
120 -> 121 ;
122 [label="mse = 2.2041\nsamples = 7\nvalue = 1.2857"] ;
120 -> 122 ;
123 [label="X[3] <= 377.0\nmse = 1.7919\nsamples = 57\nvalue = 0.8772"] ;
119 -> 123 ;
124 [label="X[1] <= 8528.0\nmse = 2.2438\nsamples = 19\nvalue = 1.5789"] ;
123 -> 124 ;
125 [label="X[1] <= 3403.0\nmse = 1.9172\nsamples = 13\nvalue = 2.0769"] ;
124 -> 125 ;
126 [label="mse = 2.2041\nsamples = 7\nvalue = 1.2857"] ;
125 -> 126 ;
127 [label="mse = 0.0\nsamples = 6\nvalue = 3.0"] ;
125 -> 127 ;
128 [label="mse = 1.25\nsamples = 6\nvalue = 0.5"] ;
124 -> 128 ;
129 [label="X[1] <= 10983.5\nmse = 1.1967\nsamples = 38\nvalue = 0.5263"] ;
123 -> 129 ;
130 [label="X[5] <= 7721.5\nmse = 0.3905\nsamples = 22\nvalue = 0.1364"] ;
129 -> 130 ;
131 [label="mse = 0.0\nsamples = 17\nvalue = 0.0"] ;
130 -> 131 ;
132 [label="mse = 1.44\nsamples = 5\nvalue = 0.6"] ;
130 -> 132 ;
133 [label="X[5] <= 4193.0\nmse = 1.8086\nsamples = 16\nvalue = 1.0625"] ;
129 -> 133 ;
134 [label="X[3] <= 509.0\nmse = 1.6875\nsamples = 8\nvalue = 1.75"] ;
133 -> 134 ;
135 [label="mse = 0.25\nsamples = 4\nvalue = 0.5"] ;
134 -> 135 ;
136 [label="mse = 0.0\nsamples = 4\nvalue = 3.0"] ;
134 -> 136 ;
137 [label="X[5] <= 5702.0\nmse = 0.9844\nsamples = 8\nvalue = 0.375"] ;
133 -> 137 ;
138 [label="mse = 1.6875\nsamples = 4\nvalue = 0.75"] ;
137 -> 138 ;
139 [label="mse = 0.0\nsamples = 4\nvalue = 0.0"] ;
137 -> 139 ;
140 [label="mse = 0.0\nsamples = 4\nvalue = 3.0"] ;
104 -> 140 ;
141 [label="X[5] <= 7824.0\nmse = 1.0075\nsamples = 109\nvalue = 0.3853"] ;
103 -> 141 ;
142 [label="X[1] <= 20192.5\nmse = 0.8734\nsamples = 101\nvalue = 0.3267"] ;
141 -> 142 ;
143 [label="X[2] <= 5.5\nmse = 0.3154\nsamples = 55\nvalue = 0.1091"] ;
142 -> 143 ;
144 [label="mse = 1.102\nsamples = 7\nvalue = 0.4286"] ;
143 -> 144 ;
145 [label="X[5] <= 6564.5\nmse = 0.1836\nsamples = 48\nvalue = 0.0625"] ;
143 -> 145 ;
146 [label="mse = 0.0\nsamples = 38\nvalue = 0.0"] ;
145 -> 146 ;
147 [label="X[5] <= 7289.5\nmse = 0.81\nsamples = 10\nvalue = 0.3"] ;
145 -> 147 ;
148 [label="mse = 1.6875\nsamples = 4\nvalue = 0.75"] ;
147 -> 148 ;
149 [label="mse = 0.0\nsamples = 6\nvalue = 0.0"] ;
147 -> 149 ;
150 [label="X[1] <= 23116.5\nmse = 1.4164\nsamples = 46\nvalue = 0.587"] ;
142 -> 150 ;
151 [label="X[2] <= 6.5\nmse = 2.2148\nsamples = 16\nvalue = 1.3125"] ;
150 -> 151 ;
152 [label="mse = 1.44\nsamples = 5\nvalue = 2.4"] ;
151 -> 152 ;
153 [label="X[1] <= 21069.5\nmse = 1.7851\nsamples = 11\nvalue = 0.8182"] ;
151 -> 153 ;
154 [label="mse = 2.25\nsamples = 4\nvalue = 1.5"] ;
153 -> 154 ;
155 [label="mse = 1.102\nsamples = 7\nvalue = 0.4286"] ;
153 -> 155 ;
156 [label="X[5] <= 5820.0\nmse = 0.56\nsamples = 30\nvalue = 0.2"] ;
150 -> 156 ;
157 [label="mse = 0.0\nsamples = 20\nvalue = 0.0"] ;
156 -> 157 ;
158 [label="X[5] <= 6630.5\nmse = 1.44\nsamples = 10\nvalue = 0.6"] ;
156 -> 158 ;
159 [label="mse = 2.25\nsamples = 4\nvalue = 1.5"] ;
158 -> 159 ;
160 [label="mse = 0.0\nsamples = 6\nvalue = 0.0"] ;
158 -> 160 ;
161 [label="X[2] <= 7.5\nmse = 2.1094\nsamples = 8\nvalue = 1.125"] ;
141 -> 161 ;
162 [label="mse = 1.6875\nsamples = 4\nvalue = 0.75"] ;
161 -> 162 ;
163 [label="mse = 2.25\nsamples = 4\nvalue = 1.5"] ;
161 -> 163 ;
164 [label="mse = 1.6875\nsamples = 4\nvalue = 1.75"] ;
102 -> 164 ;
165 [label="X[1] <= 16072.5\nmse = 2.16\nsamples = 20\nvalue = 1.2"] ;
87 -> 165 ;
166 [label="X[1] <= 2700.0\nmse = 1.44\nsamples = 15\nvalue = 0.6"] ;
165 -> 166 ;
167 [label="mse = 2.16\nsamples = 5\nvalue = 1.8"] ;
166 -> 167 ;
168 [label="mse = 0.0\nsamples = 10\nvalue = 0.0"] ;
166 -> 168 ;
169 [label="mse = 0.0\nsamples = 5\nvalue = 3.0"] ;
165 -> 169 ;
170 [label="X[5] <= 10404.0\nmse = 0.3266\nsamples = 82\nvalue = 0.122"] ;
86 -> 170 ;
171 [label="X[2] <= 8.5\nmse = 0.2385\nsamples = 77\nvalue = 0.0909"] ;
170 -> 171 ;
172 [label="X[1] <= 10987.5\nmse = 0.1358\nsamples = 72\nvalue = 0.0556"] ;
171 -> 172 ;
173 [label="X[1] <= 8652.5\nmse = 0.4399\nsamples = 21\nvalue = 0.1905"] ;
172 -> 173 ;
174 [label="mse = 0.0\nsamples = 17\nvalue = 0.0"] ;
173 -> 174 ;
175 [label="mse = 1.5\nsamples = 4\nvalue = 1.0"] ;
173 -> 175 ;
176 [label="mse = 0.0\nsamples = 51\nvalue = 0.0"] ;
172 -> 176 ;
177 [label="mse = 1.44\nsamples = 5\nvalue = 0.6"] ;
171 -> 177 ;
178 [label="mse = 1.44\nsamples = 5\nvalue = 0.6"] ;
170 -> 178 ;
179 [label="X[5] <= 10666.5\nmse = 1.788\nsamples = 128\nvalue = 0.8203"] ;
85 -> 179 ;
180 [label="mse = 1.25\nsamples = 6\nvalue = 2.5"] ;
179 -> 180 ;
181 [label="X[2] <= 5.5\nmse = 1.6689\nsamples = 122\nvalue = 0.7377"] ;
179 -> 181 ;
182 [label="X[5] <= 10814.0\nmse = 0.8284\nsamples = 39\nvalue = 0.3077"] ;
181 -> 182 ;
183 [label="mse = 2.0\nsamples = 6\nvalue = 1.0"] ;
182 -> 183 ;
184 [label="X[1] <= 18438.0\nmse = 0.5124\nsamples = 33\nvalue = 0.1818"] ;
182 -> 184 ;
185 [label="mse = 0.0\nsamples = 21\nvalue = 0.0"] ;
184 -> 185 ;
186 [label="X[1] <= 22273.0\nmse = 1.25\nsamples = 12\nvalue = 0.5"] ;
184 -> 186 ;
187 [label="mse = 2.0\nsamples = 6\nvalue = 1.0"] ;
186 -> 187 ;
188 [label="mse = 0.0\nsamples = 6\nvalue = 0.0"] ;
186 -> 188 ;
189 [label="X[4] <= 46.5\nmse = 1.9361\nsamples = 83\nvalue = 0.9398"] ;
181 -> 189 ;
190 [label="mse = 0.0\nsamples = 8\nvalue = 0.0"] ;
189 -> 190 ;
191 [label="X[3] <= 187.0\nmse = 2.0384\nsamples = 75\nvalue = 1.04"] ;
189 -> 191 ;
192 [label="X[1] <= 6170.0\nmse = 1.6194\nsamples = 34\nvalue = 0.7059"] ;
191 -> 192 ;
193 [label="mse = 2.16\nsamples = 5\nvalue = 1.8"] ;
192 -> 193 ;
194 [label="X[5] <= 11807.5\nmse = 1.2842\nsamples = 29\nvalue = 0.5172"] ;
192 -> 194 ;
195 [label="X[1] <= 21028.5\nmse = 0.4488\nsamples = 19\nvalue = 0.1579"] ;
194 -> 195 ;
196 [label="mse = 0.0\nsamples = 15\nvalue = 0.0"] ;
195 -> 196 ;
197 [label="mse = 1.6875\nsamples = 4\nvalue = 0.75"] ;
195 -> 197 ;
198 [label="X[5] <= 11879.0\nmse = 2.16\nsamples = 10\nvalue = 1.2"] ;
194 -> 198 ;
199 [label="mse = 1.6875\nsamples = 4\nvalue = 2.25"] ;
198 -> 199 ;
200 [label="mse = 1.25\nsamples = 6\nvalue = 0.5"] ;
198 -> 200 ;
201 [label="X[3] <= 367.5\nmse = 2.2165\nsamples = 41\nvalue = 1.3171"] ;
191 -> 201 ;
202 [label="mse = 0.0\nsamples = 6\nvalue = 3.0"] ;
201 -> 202 ;
203 [label="X[5] <= 11352.0\nmse = 2.0278\nsamples = 35\nvalue = 1.0286"] ;
201 -> 203 ;
204 [label="mse = 1.25\nsamples = 6\nvalue = 2.5"] ;
203 -> 204 ;
205 [label="X[3] <= 523.5\nmse = 1.648\nsamples = 29\nvalue = 0.7241"] ;
203 -> 205 ;
206 [label="X[5] <= 13420.0\nmse = 0.5273\nsamples = 16\nvalue = 0.1875"] ;
205 -> 206 ;
207 [label="mse = 0.0\nsamples = 12\nvalue = 0.0"] ;
206 -> 207 ;
208 [label="mse = 1.6875\nsamples = 4\nvalue = 0.75"] ;
206 -> 208 ;
209 [label="X[1] <= 9451.5\nmse = 2.2367\nsamples = 13\nvalue = 1.3846"] ;
205 -> 209 ;
210 [label="mse = 0.0\nsamples = 5\nvalue = 0.0"] ;
209 -> 210 ;
211 [label="X[5] <= 12104.5\nmse = 1.6875\nsamples = 8\nvalue = 2.25"] ;
209 -> 211 ;
212 [label="mse = 0.0\nsamples = 4\nvalue = 3.0"] ;
211 -> 212 ;
213 [label="mse = 2.25\nsamples = 4\nvalue = 1.5"] ;
211 -> 213 ;
214 [label="X[5] <= 11908.0\nmse = 0.5642\nsamples = 372\nvalue = 0.2016"] ;
84 -> 214 ;
215 [label="X[5] <= 473.5\nmse = 0.4057\nsamples = 317\nvalue = 0.142"] ;
214 -> 215 ;
216 [label="X[1] <= 20082.5\nmse = 2.1094\nsamples = 8\nvalue = 1.125"] ;
215 -> 216 ;
217 [label="mse = 1.6875\nsamples = 4\nvalue = 2.25"] ;
216 -> 217 ;
218 [label="mse = 0.0\nsamples = 4\nvalue = 0.0"] ;
216 -> 218 ;
219 [label="X[1] <= 9396.5\nmse = 0.3359\nsamples = 309\nvalue = 0.1165"] ;
215 -> 219 ;
220 [label="X[1] <= 8740.5\nmse = 0.7562\nsamples = 108\nvalue = 0.2778"] ;
219 -> 220 ;
221 [label="X[3] <= 441.0\nmse = 0.6564\nsamples = 101\nvalue = 0.2376"] ;
220 -> 221 ;
222 [label="X[1] <= 1822.0\nmse = 0.5095\nsamples = 83\nvalue = 0.1807"] ;
221 -> 222 ;
223 [label="mse = 1.6875\nsamples = 4\nvalue = 0.75"] ;
222 -> 223 ;
224 [label="X[1] <= 6432.5\nmse = 0.4326\nsamples = 79\nvalue = 0.1519"] ;
222 -> 224 ;
225 [label="X[1] <= 2355.5\nmse = 0.1914\nsamples = 46\nvalue = 0.0652"] ;
224 -> 225 ;
226 [label="X[1] <= 1948.0\nmse = 0.81\nsamples = 10\nvalue = 0.3"] ;
225 -> 226 ;
227 [label="mse = 0.0\nsamples = 6\nvalue = 0.0"] ;
226 -> 227 ;
228 [label="mse = 1.6875\nsamples = 4\nvalue = 0.75"] ;
226 -> 228 ;
229 [label="mse = 0.0\nsamples = 36\nvalue = 0.0"] ;
225 -> 229 ;
230 [label="X[1] <= 6819.0\nmse = 0.7438\nsamples = 33\nvalue = 0.2727"] ;
224 -> 230 ;
231 [label="mse = 1.8367\nsamples = 7\nvalue = 0.8571"] ;
230 -> 231 ;
232 [label="X[5] <= 3382.0\nmse = 0.3328\nsamples = 26\nvalue = 0.1154"] ;
230 -> 232 ;
233 [label="mse = 1.25\nsamples = 6\nvalue = 0.5"] ;
232 -> 233 ;
234 [label="mse = 0.0\nsamples = 20\nvalue = 0.0"] ;
232 -> 234 ;
235 [label="X[1] <= 4474.0\nmse = 1.25\nsamples = 18\nvalue = 0.5"] ;
221 -> 235 ;
236 [label="mse = 0.0\nsamples = 9\nvalue = 0.0"] ;
235 -> 236 ;
237 [label="X[1] <= 4509.5\nmse = 2.0\nsamples = 9\nvalue = 1.0"] ;
235 -> 237 ;
238 [label="mse = 2.25\nsamples = 4\nvalue = 1.5"] ;
237 -> 238 ;
239 [label="mse = 1.44\nsamples = 5\nvalue = 0.6"] ;
237 -> 239 ;
240 [label="mse = 1.8367\nsamples = 7\nvalue = 0.8571"] ;
220 -> 240 ;
241 [label="X[5] <= 4328.0\nmse = 0.0887\nsamples = 201\nvalue = 0.0299"] ;
219 -> 241 ;
242 [label="X[5] <= 4186.5\nmse = 0.2645\nsamples = 66\nvalue = 0.0909"] ;
241 -> 242 ;
243 [label="X[4] <= 51.5\nmse = 0.1428\nsamples = 62\nvalue = 0.0484"] ;
242 -> 243 ;
244 [label="X[5] <= 3761.5\nmse = 0.5969\nsamples = 14\nvalue = 0.2143"] ;
243 -> 244 ;
245 [label="mse = 0.0\nsamples = 10\nvalue = 0.0"] ;
244 -> 245 ;
246 [label="mse = 1.6875\nsamples = 4\nvalue = 0.75"] ;
244 -> 246 ;
247 [label="mse = 0.0\nsamples = 48\nvalue = 0.0"] ;
243 -> 247 ;
248 [label="mse = 1.6875\nsamples = 4\nvalue = 0.75"] ;
242 -> 248 ;
249 [label="mse = 0.0\nsamples = 135\nvalue = 0.0"] ;
241 -> 249 ;
250 [label="X[5] <= 12323.0\nmse = 1.3388\nsamples = 55\nvalue = 0.5455"] ;
214 -> 250 ;
251 [label="X[2] <= 7.5\nmse = 2.2148\nsamples = 16\nvalue = 1.3125"] ;
250 -> 251 ;
252 [label="mse = 0.0\nsamples = 6\nvalue = 0.0"] ;
251 -> 252 ;
253 [label="X[1] <= 19772.5\nmse = 1.89\nsamples = 10\nvalue = 2.1"] ;
251 -> 253 ;
254 [label="mse = 1.25\nsamples = 6\nvalue = 2.5"] ;
253 -> 254 ;
255 [label="mse = 2.25\nsamples = 4\nvalue = 1.5"] ;
253 -> 255 ;
256 [label="X[5] <= 13562.5\nmse = 0.6391\nsamples = 39\nvalue = 0.2308"] ;
250 -> 256 ;
257 [label="X[5] <= 13336.0\nmse = 0.2645\nsamples = 33\nvalue = 0.0909"] ;
256 -> 257 ;
258 [label="mse = 0.0\nsamples = 22\nvalue = 0.0"] ;
257 -> 258 ;
259 [label="X[5] <= 13409.5\nmse = 0.7438\nsamples = 11\nvalue = 0.2727"] ;
257 -> 259 ;
260 [label="mse = 1.6875\nsamples = 4\nvalue = 0.75"] ;
259 -> 260 ;
261 [label="mse = 0.0\nsamples = 7\nvalue = 0.0"] ;
259 -> 261 ;
262 [label="mse = 2.0\nsamples = 6\nvalue = 1.0"] ;
256 -> 262 ;
263 [label="X[0] <= 157.0\nmse = 1.6751\nsamples = 524\nvalue = 0.7519"] ;
3 -> 263 ;
264 [label="X[5] <= 6777.0\nmse = 2.0959\nsamples = 280\nvalue = 1.1357"] ;
263 -> 264 ;
265 [label="X[1] <= 1000.0\nmse = 1.6072\nsamples = 116\nvalue = 0.6983"] ;
264 -> 265 ;
266 [label="X[5] <= 1626.0\nmse = 0.9248\nsamples = 43\nvalue = 0.3488"] ;
265 -> 266 ;
267 [label="mse = 0.0\nsamples = 11\nvalue = 0.0"] ;
266 -> 267 ;
268 [label="X[5] <= 5330.0\nmse = 1.1865\nsamples = 32\nvalue = 0.4688"] ;
266 -> 268 ;
269 [label="X[5] <= 3037.5\nmse = 1.6327\nsamples = 21\nvalue = 0.7143"] ;
268 -> 269 ;
270 [label="mse = 2.16\nsamples = 5\nvalue = 1.2"] ;
269 -> 270 ;
271 [label="X[5] <= 4380.5\nmse = 1.3711\nsamples = 16\nvalue = 0.5625"] ;
269 -> 271 ;
272 [label="mse = 0.0\nsamples = 5\nvalue = 0.0"] ;
271 -> 272 ;
273 [label="X[2] <= 10.5\nmse = 1.7851\nsamples = 11\nvalue = 0.8182"] ;
271 -> 273 ;
274 [label="mse = 1.25\nsamples = 6\nvalue = 0.5"] ;
273 -> 274 ;
275 [label="mse = 2.16\nsamples = 5\nvalue = 1.2"] ;
273 -> 275 ;
276 [label="mse = 0.0\nsamples = 11\nvalue = 0.0"] ;
268 -> 276 ;
277 [label="X[1] <= 14966.5\nmse = 1.8949\nsamples = 73\nvalue = 0.9041"] ;
265 -> 277 ;
278 [label="X[4] <= 44.5\nmse = 2.2484\nsamples = 37\nvalue = 1.4595"] ;
277 -> 278 ;
279 [label="mse = 0.0\nsamples = 7\nvalue = 0.0"] ;
278 -> 279 ;
280 [label="X[5] <= 6088.5\nmse = 2.16\nsamples = 30\nvalue = 1.8"] ;
278 -> 280 ;
281 [label="X[1] <= 4839.5\nmse = 1.7353\nsamples = 23\nvalue = 2.2174"] ;
280 -> 281 ;
282 [label="mse = 2.0\nsamples = 6\nvalue = 1.0"] ;
281 -> 282 ;
283 [label="X[3] <= 418.5\nmse = 0.9343\nsamples = 17\nvalue = 2.6471"] ;
281 -> 283 ;
284 [label="mse = 0.0\nsamples = 11\nvalue = 3.0"] ;
283 -> 284 ;
285 [label="mse = 2.0\nsamples = 6\nvalue = 2.0"] ;
283 -> 285 ;
286 [label="mse = 1.102\nsamples = 7\nvalue = 0.4286"] ;
280 -> 286 ;
287 [label="X[1] <= 23431.0\nmse = 0.8889\nsamples = 36\nvalue = 0.3333"] ;
277 -> 287 ;
288 [label="mse = 0.0\nsamples = 24\nvalue = 0.0"] ;
287 -> 288 ;
289 [label="X[1] <= 26449.5\nmse = 2.0\nsamples = 12\nvalue = 1.0"] ;
287 -> 289 ;
290 [label="mse = 2.16\nsamples = 5\nvalue = 1.8"] ;
289 -> 290 ;
291 [label="mse = 1.102\nsamples = 7\nvalue = 0.4286"] ;
289 -> 291 ;
292 [label="X[5] <= 8593.5\nmse = 2.2104\nsamples = 164\nvalue = 1.4451"] ;
264 -> 292 ;
293 [label="X[5] <= 7307.0\nmse = 1.7026\nsamples = 41\nvalue = 2.1707"] ;
292 -> 293 ;
294 [label="X[1] <= 734.5\nmse = 2.25\nsamples = 14\nvalue = 1.5"] ;
293 -> 294 ;
295 [label="mse = 1.102\nsamples = 7\nvalue = 2.5714"] ;
294 -> 295 ;
296 [label="mse = 1.102\nsamples = 7\nvalue = 0.4286"] ;
294 -> 296 ;
297 [label="X[2] <= 10.5\nmse = 1.0645\nsamples = 27\nvalue = 2.5185"] ;
293 -> 297 ;
298 [label="X[3] <= 367.5\nmse = 1.5273\nsamples = 16\nvalue = 2.1875"] ;
297 -> 298 ;
299 [label="X[5] <= 8116.0\nmse = 0.8889\nsamples = 9\nvalue = 2.6667"] ;
298 -> 299 ;
300 [label="mse = 0.0\nsamples = 5\nvalue = 3.0"] ;
299 -> 300 ;
301 [label="mse = 1.6875\nsamples = 4\nvalue = 2.25"] ;
299 -> 301 ;
302 [label="mse = 1.6735\nsamples = 7\nvalue = 1.5714"] ;
298 -> 302 ;
303 [label="mse = 0.0\nsamples = 11\nvalue = 3.0"] ;
297 -> 303 ;
304 [label="X[1] <= 1394.0\nmse = 2.1457\nsamples = 123\nvalue = 1.2033"] ;
292 -> 304 ;
305 [label="X[2] <= 10.5\nmse = 1.5079\nsamples = 42\nvalue = 0.6667"] ;
304 -> 305 ;
306 [label="X[3] <= 376.5\nmse = 0.8999\nsamples = 27\nvalue = 0.3704"] ;
305 -> 306 ;
307 [label="X[5] <= 11527.0\nmse = 1.301\nsamples = 17\nvalue = 0.5882"] ;
306 -> 307 ;
308 [label="X[5] <= 10752.5\nmse = 0.6875\nsamples = 12\nvalue = 0.25"] ;
307 -> 308 ;
309 [label="mse = 1.44\nsamples = 5\nvalue = 0.6"] ;
308 -> 309 ;
310 [label="mse = 0.0\nsamples = 7\nvalue = 0.0"] ;
308 -> 310 ;
311 [label="mse = 1.84\nsamples = 5\nvalue = 1.4"] ;
307 -> 311 ;
312 [label="mse = 0.0\nsamples = 10\nvalue = 0.0"] ;
306 -> 312 ;
313 [label="X[3] <= 222.0\nmse = 2.16\nsamples = 15\nvalue = 1.2"] ;
305 -> 313 ;
314 [label="X[5] <= 11507.5\nmse = 0.9844\nsamples = 8\nvalue = 0.375"] ;
313 -> 314 ;
315 [label="mse = 1.6875\nsamples = 4\nvalue = 0.75"] ;
314 -> 315 ;
316 [label="mse = 0.0\nsamples = 4\nvalue = 0.0"] ;
314 -> 316 ;
317 [label="mse = 1.8367\nsamples = 7\nvalue = 2.1429"] ;
313 -> 317 ;
318 [label="X[4] <= 55.0\nmse = 2.2497\nsamples = 81\nvalue = 1.4815"] ;
304 -> 318 ;
319 [label="X[3] <= 367.5\nmse = 1.308\nsamples = 17\nvalue = 0.5294"] ;
318 -> 319 ;
320 [label="X[4] <= 46.5\nmse = 1.89\nsamples = 10\nvalue = 0.9"] ;
319 -> 320 ;
321 [label="mse = 1.44\nsamples = 5\nvalue = 0.6"] ;
320 -> 321 ;
322 [label="mse = 2.16\nsamples = 5\nvalue = 1.2"] ;
320 -> 322 ;
323 [label="mse = 0.0\nsamples = 7\nvalue = 0.0"] ;
319 -> 323 ;
324 [label="X[5] <= 9384.0\nmse = 2.1951\nsamples = 64\nvalue = 1.7344"] ;
318 -> 324 ;
325 [label="X[1] <= 12077.0\nmse = 1.44\nsamples = 10\nvalue = 0.6"] ;
324 -> 325 ;
326 [label="mse = 1.6875\nsamples = 4\nvalue = 0.75"] ;
325 -> 326 ;
327 [label="mse = 1.25\nsamples = 6\nvalue = 0.5"] ;
325 -> 327 ;
328 [label="X[3] <= 143.5\nmse = 2.0525\nsamples = 54\nvalue = 1.9444"] ;
324 -> 328 ;
329 [label="X[1] <= 20164.5\nmse = 2.2041\nsamples = 21\nvalue = 1.2857"] ;
328 -> 329 ;
330 [label="X[1] <= 13935.5\nmse = 1.5976\nsamples = 13\nvalue = 0.6923"] ;
329 -> 330 ;
331 [label="X[5] <= 11479.5\nmse = 2.0\nsamples = 9\nvalue = 1.0"] ;
330 -> 331 ;
332 [label="mse = 2.25\nsamples = 4\nvalue = 1.5"] ;
331 -> 332 ;
333 [label="mse = 1.44\nsamples = 5\nvalue = 0.6"] ;
331 -> 333 ;
334 [label="mse = 0.0\nsamples = 4\nvalue = 0.0"] ;
330 -> 334 ;
335 [label="X[1] <= 20858.5\nmse = 1.6875\nsamples = 8\nvalue = 2.25"] ;
329 -> 335 ;
336 [label="mse = 1.6875\nsamples = 4\nvalue = 2.25"] ;
335 -> 336 ;
337 [label="mse = 1.6875\nsamples = 4\nvalue = 2.25"] ;
335 -> 337 ;
338 [label="X[1] <= 21957.5\nmse = 1.5041\nsamples = 33\nvalue = 2.3636"] ;
328 -> 338 ;
339 [label="X[5] <= 12148.0\nmse = 0.9186\nsamples = 26\nvalue = 2.6538"] ;
338 -> 339 ;
340 [label="mse = 0.0\nsamples = 17\nvalue = 3.0"] ;
339 -> 340 ;
341 [label="X[5] <= 13290.5\nmse = 2.0\nsamples = 9\nvalue = 2.0"] ;
339 -> 341 ;
342 [label="mse = 1.6875\nsamples = 4\nvalue = 0.75"] ;
341 -> 342 ;
343 [label="mse = 0.0\nsamples = 5\nvalue = 3.0"] ;
341 -> 343 ;
344 [label="mse = 2.2041\nsamples = 7\nvalue = 1.2857"] ;
338 -> 344 ;
345 [label="X[1] <= 21478.5\nmse = 0.8292\nsamples = 244\nvalue = 0.3115"] ;
263 -> 345 ;
346 [label="X[5] <= 5628.0\nmse = 0.5868\nsamples = 215\nvalue = 0.214"] ;
345 -> 346 ;
347 [label="X[5] <= 5372.0\nmse = 0.977\nsamples = 81\nvalue = 0.3827"] ;
346 -> 347 ;
348 [label="X[1] <= 1264.5\nmse = 0.7495\nsamples = 77\nvalue = 0.2857"] ;
347 -> 348 ;
349 [label="X[5] <= 1548.0\nmse = 1.2842\nsamples = 29\nvalue = 0.5172"] ;
348 -> 349 ;
350 [label="mse = 0.0\nsamples = 12\nvalue = 0.0"] ;
349 -> 350 ;
351 [label="X[5] <= 4365.5\nmse = 1.8685\nsamples = 17\nvalue = 0.8824"] ;
349 -> 351 ;
352 [label="X[5] <= 3120.5\nmse = 2.2314\nsamples = 11\nvalue = 1.3636"] ;
351 -> 352 ;
353 [label="mse = 2.0\nsamples = 6\nvalue = 1.0"] ;
352 -> 353 ;
354 [label="mse = 2.16\nsamples = 5\nvalue = 1.8"] ;
352 -> 354 ;
355 [label="mse = 0.0\nsamples = 6\nvalue = 0.0"] ;
351 -> 355 ;
356 [label="X[1] <= 14545.0\nmse = 0.3746\nsamples = 48\nvalue = 0.1458"] ;
348 -> 356 ;
357 [label="X[5] <= 1259.0\nmse = 0.2344\nsamples = 41\nvalue = 0.0976"] ;
356 -> 357 ;
358 [label="X[5] <= 551.5\nmse = 0.84\nsamples = 10\nvalue = 0.4"] ;
357 -> 358 ;
359 [label="mse = 0.0\nsamples = 6\nvalue = 0.0"] ;
358 -> 359 ;
360 [label="mse = 1.5\nsamples = 4\nvalue = 1.0"] ;
358 -> 360 ;
361 [label="mse = 0.0\nsamples = 31\nvalue = 0.0"] ;
357 -> 361 ;
362 [label="mse = 1.102\nsamples = 7\nvalue = 0.4286"] ;
356 -> 362 ;
363 [label="mse = 1.6875\nsamples = 4\nvalue = 2.25"] ;
347 -> 363 ;
364 [label="X[4] <= 51.5\nmse = 0.3233\nsamples = 134\nvalue = 0.1119"] ;
346 -> 364 ;
365 [label="X[1] <= 17781.5\nmse = 1.0284\nsamples = 38\nvalue = 0.3947"] ;
364 -> 365 ;
366 [label="X[1] <= 4112.5\nmse = 0.7438\nsamples = 33\nvalue = 0.2727"] ;
365 -> 366 ;
367 [label="X[5] <= 9264.5\nmse = 1.7851\nsamples = 11\nvalue = 0.8182"] ;
366 -> 367 ;
368 [label="mse = 2.16\nsamples = 5\nvalue = 1.2"] ;
367 -> 368 ;
369 [label="mse = 1.25\nsamples = 6\nvalue = 0.5"] ;
367 -> 369 ;
370 [label="mse = 0.0\nsamples = 22\nvalue = 0.0"] ;
366 -> 370 ;
371 [label="mse = 2.16\nsamples = 5\nvalue = 1.2"] ;
365 -> 371 ;
372 [label="mse = 0.0\nsamples = 96\nvalue = 0.0"] ;
364 -> 372 ;
373 [label="X[1] <= 23213.0\nmse = 2.0333\nsamples = 29\nvalue = 1.0345"] ;
345 -> 373 ;
374 [label="mse = 1.102\nsamples = 7\nvalue = 2.5714"] ;
373 -> 374 ;
375 [label="X[5] <= 1690.5\nmse = 1.3388\nsamples = 22\nvalue = 0.5455"] ;
373 -> 375 ;
376 [label="mse = 2.25\nsamples = 4\nvalue = 1.5"] ;
375 -> 376 ;
377 [label="X[4] <= 55.5\nmse = 0.8889\nsamples = 18\nvalue = 0.3333"] ;
375 -> 377 ;
378 [label="X[1] <= 26381.5\nmse = 1.6875\nsamples = 8\nvalue = 0.75"] ;
377 -> 378 ;
379 [label="mse = 2.25\nsamples = 4\nvalue = 1.5"] ;
378 -> 379 ;
380 [label="mse = 0.0\nsamples = 4\nvalue = 0.0"] ;
378 -> 380 ;
381 [label="mse = 0.0\nsamples = 10\nvalue = 0.0"] ;
377 -> 381 ;
382 [label="X[2] <= 7.5\nmse = 1.8791\nsamples = 4002\nvalue = 0.9555"] ;
2 -> 382 ;
383 [label="X[3] <= 702.0\nmse = 1.5075\nsamples = 2059\nvalue = 0.6571"] ;
382 -> 383 ;
384 [label="X[1] <= 6128.0\nmse = 1.9722\nsamples = 729\nvalue = 1.0192"] ;
383 -> 384 ;
385 [label="X[5] <= 13287.0\nmse = 1.7413\nsamples = 462\nvalue = 0.8052"] ;
384 -> 385 ;
386 [label="X[5] <= 12707.5\nmse = 1.8051\nsamples = 432\nvalue = 0.8542"] ;
385 -> 386 ;
387 [label="X[5] <= 3877.5\nmse = 1.7388\nsamples = 421\nvalue = 0.8052"] ;
386 -> 387 ;
388 [label="X[3] <= 694.5\nmse = 1.2195\nsamples = 99\nvalue = 0.4848"] ;
387 -> 388 ;
389 [label="mse = 2.2041\nsamples = 7\nvalue = 1.2857"] ;
388 -> 389 ;
390 [label="X[5] <= 1700.0\nmse = 1.092\nsamples = 92\nvalue = 0.4239"] ;
388 -> 390 ;
391 [label="X[5] <= 1643.0\nmse = 1.3303\nsamples = 61\nvalue = 0.541"] ;
390 -> 391 ;
392 [label="X[4] <= 64.5\nmse = 1.1358\nsamples = 54\nvalue = 0.4444"] ;
391 -> 392 ;
393 [label="mse = 2.16\nsamples = 5\nvalue = 1.2"] ;
392 -> 393 ;
394 [label="X[5] <= 1004.5\nmse = 0.9671\nsamples = 49\nvalue = 0.3673"] ;
392 -> 394 ;
395 [label="X[5] <= 905.0\nmse = 1.3711\nsamples = 32\nvalue = 0.5625"] ;
394 -> 395 ;
396 [label="X[2] <= 5.5\nmse = 0.6875\nsamples = 24\nvalue = 0.25"] ;
395 -> 396 ;
397 [label="mse = 0.0\nsamples = 11\nvalue = 0.0"] ;
396 -> 397 ;
398 [label="X[5] <= 601.5\nmse = 1.1716\nsamples = 13\nvalue = 0.4615"] ;
396 -> 398 ;
399 [label="X[5] <= 465.0\nmse = 1.6875\nsamples = 8\nvalue = 0.75"] ;
398 -> 399 ;
400 [label="mse = 1.6875\nsamples = 4\nvalue = 0.75"] ;
399 -> 400 ;
401 [label="mse = 1.6875\nsamples = 4\nvalue = 0.75"] ;
399 -> 401 ;
402 [label="mse = 0.0\nsamples = 5\nvalue = 0.0"] ;
398 -> 402 ;
403 [label="mse = 2.25\nsamples = 8\nvalue = 1.5"] ;
395 -> 403 ;
404 [label="mse = 0.0\nsamples = 17\nvalue = 0.0"] ;
394 -> 404 ;
405 [label="mse = 2.2041\nsamples = 7\nvalue = 1.2857"] ;
391 -> 405 ;
406 [label="X[5] <= 2287.0\nmse = 0.5432\nsamples = 31\nvalue = 0.1935"] ;
390 -> 406 ;
407 [label="mse = 0.0\nsamples = 17\nvalue = 0.0"] ;
406 -> 407 ;
408 [label="X[5] <= 3673.5\nmse = 1.102\nsamples = 14\nvalue = 0.4286"] ;
406 -> 408 ;
409 [label="mse = 1.8367\nsamples = 7\nvalue = 0.8571"] ;
408 -> 409 ;
410 [label="mse = 0.0\nsamples = 7\nvalue = 0.0"] ;
408 -> 410 ;
411 [label="X[5] <= 8117.0\nmse = 1.8572\nsamples = 322\nvalue = 0.9037"] ;
387 -> 411 ;
412 [label="X[2] <= 3.5\nmse = 2.1\nsamples = 157\nvalue = 1.1656"] ;
411 -> 412 ;
413 [label="X[5] <= 6580.5\nmse = 2.0\nsamples = 18\nvalue = 2.0"] ;
412 -> 413 ;
414 [label="X[2] <= 2.5\nmse = 2.0\nsamples = 9\nvalue = 1.0"] ;
413 -> 414 ;
415 [label="mse = 2.16\nsamples = 5\nvalue = 1.2"] ;
414 -> 415 ;
416 [label="mse = 1.6875\nsamples = 4\nvalue = 0.75"] ;
414 -> 416 ;
417 [label="mse = 0.0\nsamples = 9\nvalue = 3.0"] ;
413 -> 417 ;
418 [label="X[2] <= 5.5\nmse = 2.0111\nsamples = 139\nvalue = 1.0576"] ;
412 -> 418 ;
419 [label="X[3] <= 694.5\nmse = 1.4619\nsamples = 49\nvalue = 0.6122"] ;
418 -> 419 ;
420 [label="mse = 1.6875\nsamples = 4\nvalue = 2.25"] ;
419 -> 420 ;
421 [label="X[1] <= 76.5\nmse = 1.1822\nsamples = 45\nvalue = 0.4667"] ;
419 -> 421 ;
422 [label="X[5] <= 5829.5\nmse = 0.5124\nsamples = 33\nvalue = 0.1818"] ;
421 -> 422 ;
423 [label="mse = 0.0\nsamples = 15\nvalue = 0.0"] ;
422 -> 423 ;
424 [label="X[5] <= 7111.5\nmse = 0.8889\nsamples = 18\nvalue = 0.3333"] ;
422 -> 424 ;
425 [label="X[2] <= 4.5\nmse = 1.44\nsamples = 10\nvalue = 0.6"] ;
424 -> 425 ;
426 [label="mse = 1.6875\nsamples = 4\nvalue = 0.75"] ;
425 -> 426 ;
427 [label="mse = 1.25\nsamples = 6\nvalue = 0.5"] ;
425 -> 427 ;
428 [label="mse = 0.0\nsamples = 8\nvalue = 0.0"] ;
424 -> 428 ;
429 [label="X[5] <= 5894.0\nmse = 2.1875\nsamples = 12\nvalue = 1.25"] ;
421 -> 429 ;
430 [label="mse = 2.16\nsamples = 5\nvalue = 1.8"] ;
429 -> 430 ;
431 [label="mse = 1.8367\nsamples = 7\nvalue = 0.8571"] ;
429 -> 431 ;
432 [label="X[5] <= 7042.5\nmse = 2.1433\nsamples = 90\nvalue = 1.3"] ;
418 -> 432 ;
433 [label="X[5] <= 5689.0\nmse = 2.0918\nsamples = 72\nvalue = 1.1389"] ;
432 -> 433 ;
434 [label="X[5] <= 5534.5\nmse = 2.1914\nsamples = 36\nvalue = 1.4444"] ;
433 -> 434 ;
435 [label="X[5] <= 5133.0\nmse = 2.0916\nsamples = 31\nvalue = 1.1935"] ;
434 -> 435 ;
436 [label="X[5] <= 5058.0\nmse = 2.157\nsamples = 22\nvalue = 1.5455"] ;
435 -> 436 ;
437 [label="X[5] <= 3979.0\nmse = 2.0617\nsamples = 18\nvalue = 1.2222"] ;
436 -> 437 ;
438 [label="mse = 2.2041\nsamples = 7\nvalue = 1.7143"] ;
437 -> 438 ;
439 [label="X[5] <= 4144.5\nmse = 1.719\nsamples = 11\nvalue = 0.9091"] ;
437 -> 439 ;
440 [label="mse = 0.0\nsamples = 4\nvalue = 0.0"] ;
439 -> 440 ;
441 [label="mse = 1.9592\nsamples = 7\nvalue = 1.4286"] ;
439 -> 441 ;
442 [label="mse = 0.0\nsamples = 4\nvalue = 3.0"] ;
436 -> 442 ;
443 [label="mse = 0.8889\nsamples = 9\nvalue = 0.3333"] ;
435 -> 443 ;
444 [label="mse = 0.0\nsamples = 5\nvalue = 3.0"] ;
434 -> 444 ;
445 [label="X[5] <= 5964.0\nmse = 1.8056\nsamples = 36\nvalue = 0.8333"] ;
433 -> 445 ;
446 [label="X[2] <= 6.5\nmse = 0.8889\nsamples = 9\nvalue = 0.3333"] ;
445 -> 446 ;
447 [label="mse = 1.6875\nsamples = 4\nvalue = 0.75"] ;
446 -> 447 ;
448 [label="mse = 0.0\nsamples = 5\nvalue = 0.0"] ;
446 -> 448 ;
449 [label="X[5] <= 6571.5\nmse = 2.0\nsamples = 27\nvalue = 1.0"] ;
445 -> 449 ;
450 [label="X[5] <= 6301.0\nmse = 2.25\nsamples = 10\nvalue = 1.5"] ;
449 -> 450 ;
451 [label="mse = 1.6875\nsamples = 4\nvalue = 0.75"] ;
450 -> 451 ;
452 [label="mse = 2.0\nsamples = 6\nvalue = 2.0"] ;
450 -> 452 ;
453 [label="X[1] <= 370.5\nmse = 1.6194\nsamples = 17\nvalue = 0.7059"] ;
449 -> 453 ;
454 [label="X[2] <= 6.5\nmse = 2.0826\nsamples = 11\nvalue = 1.0909"] ;
453 -> 454 ;
455 [label="mse = 2.25\nsamples = 6\nvalue = 1.5"] ;
454 -> 455 ;
456 [label="mse = 1.44\nsamples = 5\nvalue = 0.6"] ;
454 -> 456 ;
457 [label="mse = 0.0\nsamples = 6\nvalue = 0.0"] ;
453 -> 457 ;
458 [label="X[5] <= 7174.0\nmse = 1.8302\nsamples = 18\nvalue = 1.9444"] ;
432 -> 458 ;
459 [label="X[1] <= 1038.0\nmse = 1.9844\nsamples = 8\nvalue = 1.625"] ;
458 -> 459 ;
460 [label="mse = 2.25\nsamples = 4\nvalue = 1.5"] ;
459 -> 460 ;
461 [label="mse = 1.6875\nsamples = 4\nvalue = 1.75"] ;
459 -> 461 ;
462 [label="X[5] <= 7284.5\nmse = 1.56\nsamples = 10\nvalue = 2.2"] ;
458 -> 462 ;
463 [label="mse = 0.75\nsamples = 4\nvalue = 2.5"] ;
462 -> 463 ;
464 [label="mse = 2.0\nsamples = 6\nvalue = 2.0"] ;
462 -> 464 ;
465 [label="X[5] <= 11850.0\nmse = 1.4988\nsamples = 165\nvalue = 0.6545"] ;
411 -> 465 ;
466 [label="X[5] <= 10732.0\nmse = 1.3251\nsamples = 128\nvalue = 0.5547"] ;
465 -> 466 ;
467 [label="X[5] <= 9810.5\nmse = 1.6382\nsamples = 66\nvalue = 0.7576"] ;
466 -> 467 ;
468 [label="X[2] <= 6.5\nmse = 1.1385\nsamples = 54\nvalue = 0.4815"] ;
467 -> 468 ;
469 [label="X[5] <= 9540.0\nmse = 0.7006\nsamples = 36\nvalue = 0.2778"] ;
468 -> 469 ;
470 [label="X[5] <= 8798.5\nmse = 0.3367\nsamples = 28\nvalue = 0.1429"] ;
469 -> 470 ;
471 [label="X[2] <= 5.5\nmse = 0.5956\nsamples = 15\nvalue = 0.2667"] ;
470 -> 471 ;
472 [label="X[5] <= 8389.5\nmse = 0.0826\nsamples = 11\nvalue = 0.0909"] ;
471 -> 472 ;
473 [label="mse = 0.0\nsamples = 6\nvalue = 0.0"] ;
472 -> 473 ;
474 [label="mse = 0.16\nsamples = 5\nvalue = 0.2"] ;
472 -> 474 ;
475 [label="mse = 1.6875\nsamples = 4\nvalue = 0.75"] ;
471 -> 475 ;
476 [label="mse = 0.0\nsamples = 13\nvalue = 0.0"] ;
470 -> 476 ;
477 [label="mse = 1.6875\nsamples = 8\nvalue = 0.75"] ;
469 -> 477 ;
478 [label="X[5] <= 8989.5\nmse = 1.7654\nsamples = 18\nvalue = 0.8889"] ;
468 -> 478 ;
479 [label="X[5] <= 8671.5\nmse = 2.2222\nsamples = 9\nvalue = 1.3333"] ;
478 -> 479 ;
480 [label="mse = 1.44\nsamples = 5\nvalue = 0.6"] ;
479 -> 480 ;
481 [label="mse = 1.6875\nsamples = 4\nvalue = 2.25"] ;
479 -> 481 ;
482 [label="X[5] <= 9239.0\nmse = 0.9136\nsamples = 9\nvalue = 0.4444"] ;
478 -> 482 ;
483 [label="mse = 0.0\nsamples = 4\nvalue = 0.0"] ;
482 -> 483 ;
484 [label="mse = 1.36\nsamples = 5\nvalue = 0.8"] ;
482 -> 484 ;
485 [label="X[2] <= 5.5\nmse = 2.0\nsamples = 12\nvalue = 2.0"] ;
467 -> 485 ;
486 [label="mse = 1.25\nsamples = 6\nvalue = 2.5"] ;
485 -> 486 ;
487 [label="mse = 2.25\nsamples = 6\nvalue = 1.5"] ;
485 -> 487 ;
488 [label="X[5] <= 11101.5\nmse = 0.9014\nsamples = 62\nvalue = 0.3387"] ;
466 -> 488 ;
489 [label="mse = 0.0\nsamples = 20\nvalue = 0.0"] ;
488 -> 489 ;
490 [label="X[5] <= 11783.0\nmse = 1.25\nsamples = 42\nvalue = 0.5"] ;
488 -> 490 ;
491 [label="X[2] <= 6.5\nmse = 1.5041\nsamples = 33\nvalue = 0.6364"] ;
490 -> 491 ;
492 [label="X[5] <= 11715.5\nmse = 1.8685\nsamples = 17\nvalue = 0.8824"] ;
491 -> 492 ;
493 [label="X[5] <= 11396.0\nmse = 1.25\nsamples = 12\nvalue = 0.5"] ;
492 -> 493 ;
494 [label="mse = 2.16\nsamples = 5\nvalue = 1.2"] ;
493 -> 494 ;
495 [label="mse = 0.0\nsamples = 7\nvalue = 0.0"] ;
493 -> 495 ;
496 [label="mse = 2.16\nsamples = 5\nvalue = 1.8"] ;
492 -> 496 ;
497 [label="X[5] <= 11462.0\nmse = 0.9844\nsamples = 16\nvalue = 0.375"] ;
491 -> 497 ;
498 [label="mse = 1.6875\nsamples = 8\nvalue = 0.75"] ;
497 -> 498 ;
499 [label="mse = 0.0\nsamples = 8\nvalue = 0.0"] ;
497 -> 499 ;
500 [label="mse = 0.0\nsamples = 9\nvalue = 0.0"] ;
490 -> 500 ;
501 [label="X[5] <= 12198.5\nmse = 1.9459\nsamples = 37\nvalue = 1.0"] ;
465 -> 501 ;
502 [label="X[2] <= 5.5\nmse = 2.16\nsamples = 10\nvalue = 1.8"] ;
501 -> 502 ;
503 [label="mse = 1.25\nsamples = 6\nvalue = 2.5"] ;
502 -> 503 ;
504 [label="mse = 1.6875\nsamples = 4\nvalue = 0.75"] ;
502 -> 504 ;
505 [label="X[5] <= 12425.5\nmse = 1.5418\nsamples = 27\nvalue = 0.7037"] ;
501 -> 505 ;
506 [label="X[2] <= 5.5\nmse = 0.09\nsamples = 10\nvalue = 0.1"] ;
505 -> 506 ;
507 [label="mse = 0.0\nsamples = 6\nvalue = 0.0"] ;
506 -> 507 ;
508 [label="mse = 0.1875\nsamples = 4\nvalue = 0.25"] ;
506 -> 508 ;
509 [label="X[5] <= 12542.0\nmse = 2.0554\nsamples = 17\nvalue = 1.0588"] ;
505 -> 509 ;
510 [label="mse = 1.44\nsamples = 5\nvalue = 2.4"] ;
509 -> 510 ;
511 [label="X[5] <= 12610.5\nmse = 1.25\nsamples = 12\nvalue = 0.5"] ;
509 -> 511 ;
512 [label="mse = 2.0\nsamples = 6\nvalue = 1.0"] ;
511 -> 512 ;
513 [label="mse = 0.0\nsamples = 6\nvalue = 0.0"] ;
511 -> 513 ;
514 [label="X[5] <= 13207.0\nmse = 0.7438\nsamples = 11\nvalue = 2.7273"] ;
386 -> 514 ;
515 [label="mse = 0.0\nsamples = 7\nvalue = 3.0"] ;
514 -> 515 ;
516 [label="mse = 1.6875\nsamples = 4\nvalue = 2.25"] ;
514 -> 516 ;
517 [label="X[5] <= 13546.0\nmse = 0.29\nsamples = 30\nvalue = 0.1"] ;
385 -> 517 ;
518 [label="mse = 0.0\nsamples = 24\nvalue = 0.0"] ;
517 -> 518 ;
519 [label="mse = 1.25\nsamples = 6\nvalue = 0.5"] ;
517 -> 519 ;
520 [label="X[3] <= 694.5\nmse = 2.1554\nsamples = 267\nvalue = 1.3895"] ;
384 -> 520 ;
521 [label="X[1] <= 17565.5\nmse = 1.44\nsamples = 20\nvalue = 2.4"] ;
520 -> 521 ;
522 [label="mse = 0.0\nsamples = 7\nvalue = 3.0"] ;
521 -> 522 ;
523 [label="X[1] <= 21406.0\nmse = 1.9172\nsamples = 13\nvalue = 2.0769"] ;
521 -> 523 ;
524 [label="mse = 2.16\nsamples = 5\nvalue = 1.2"] ;
523 -> 524 ;
525 [label="X[5] <= 11062.5\nmse = 0.9844\nsamples = 8\nvalue = 2.625"] ;
523 -> 525 ;
526 [label="mse = 1.6875\nsamples = 4\nvalue = 2.25"] ;
525 -> 526 ;
527 [label="mse = 0.0\nsamples = 4\nvalue = 3.0"] ;
525 -> 527 ;
528 [label="X[5] <= 7722.5\nmse = 2.1239\nsamples = 247\nvalue = 1.3077"] ;
520 -> 528 ;
529 [label="X[5] <= 2398.5\nmse = 2.1725\nsamples = 129\nvalue = 1.5039"] ;
528 -> 529 ;
530 [label="X[5] <= 1513.5\nmse = 1.9216\nsamples = 52\nvalue = 1.0385"] ;
529 -> 530 ;
531 [label="X[2] <= 5.5\nmse = 2.0537\nsamples = 32\nvalue = 1.5938"] ;
530 -> 531 ;
532 [label="X[5] <= 583.0\nmse = 1.6875\nsamples = 12\nvalue = 0.75"] ;
531 -> 532 ;
533 [label="mse = 2.16\nsamples = 5\nvalue = 1.8"] ;
532 -> 533 ;
534 [label="mse = 0.0\nsamples = 7\nvalue = 0.0"] ;
532 -> 534 ;
535 [label="X[4] <= 60.0\nmse = 1.59\nsamples = 20\nvalue = 2.1"] ;
531 -> 535 ;
536 [label="mse = 1.9592\nsamples = 7\nvalue = 1.4286"] ;
535 -> 536 ;
537 [label="X[5] <= 961.5\nmse = 1.0178\nsamples = 13\nvalue = 2.4615"] ;
535 -> 537 ;
538 [label="mse = 0.0\nsamples = 6\nvalue = 3.0"] ;
537 -> 538 ;
539 [label="mse = 1.4286\nsamples = 7\nvalue = 2.0"] ;
537 -> 539 ;
540 [label="X[1] <= 14100.0\nmse = 0.4275\nsamples = 20\nvalue = 0.15"] ;
530 -> 540 ;
541 [label="mse = 1.6875\nsamples = 4\nvalue = 0.75"] ;
540 -> 541 ;
542 [label="mse = 0.0\nsamples = 16\nvalue = 0.0"] ;
540 -> 542 ;
543 [label="X[5] <= 7030.0\nmse = 2.0968\nsamples = 77\nvalue = 1.8182"] ;
529 -> 543 ;
544 [label="X[5] <= 6535.0\nmse = 2.158\nsamples = 64\nvalue = 1.6719"] ;
543 -> 544 ;
545 [label="X[1] <= 12080.0\nmse = 1.9584\nsamples = 50\nvalue = 1.96"] ;
544 -> 545 ;
546 [label="X[5] <= 6301.0\nmse = 0.7438\nsamples = 11\nvalue = 2.7273"] ;
545 -> 546 ;
547 [label="mse = 0.0\nsamples = 7\nvalue = 3.0"] ;
546 -> 547 ;
548 [label="mse = 1.6875\nsamples = 4\nvalue = 2.25"] ;
546 -> 548 ;
549 [label="X[1] <= 14668.5\nmse = 2.0881\nsamples = 39\nvalue = 1.7436"] ;
545 -> 549 ;
550 [label="mse = 0.0\nsamples = 6\nvalue = 0.0"] ;
549 -> 550 ;
551 [label="X[5] <= 5797.0\nmse = 1.8145\nsamples = 33\nvalue = 2.0606"] ;
549 -> 551 ;
552 [label="X[4] <= 55.5\nmse = 1.1967\nsamples = 19\nvalue = 2.5263"] ;
551 -> 552 ;
553 [label="mse = 2.16\nsamples = 5\nvalue = 1.8"] ;
552 -> 553 ;
554 [label="X[2] <= 6.5\nmse = 0.5969\nsamples = 14\nvalue = 2.7857"] ;
552 -> 554 ;
555 [label="mse = 0.0\nsamples = 9\nvalue = 3.0"] ;
554 -> 555 ;
556 [label="mse = 1.44\nsamples = 5\nvalue = 2.4"] ;
554 -> 556 ;
557 [label="X[2] <= 4.5\nmse = 1.9592\nsamples = 14\nvalue = 1.4286"] ;
551 -> 557 ;
558 [label="X[1] <= 21510.0\nmse = 1.6875\nsamples = 8\nvalue = 1.75"] ;
557 -> 558 ;
559 [label="mse = 2.25\nsamples = 4\nvalue = 1.5"] ;
558 -> 559 ;
560 [label="mse = 1.0\nsamples = 4\nvalue = 2.0"] ;
558 -> 560 ;
561 [label="mse = 2.0\nsamples = 6\nvalue = 1.0"] ;
557 -> 561 ;
562 [label="X[5] <= 6693.5\nmse = 1.5153\nsamples = 14\nvalue = 0.6429"] ;
544 -> 562 ;
563 [label="mse = 0.0\nsamples = 6\nvalue = 0.0"] ;
562 -> 563 ;
564 [label="X[5] <= 6764.0\nmse = 2.1094\nsamples = 8\nvalue = 1.125"] ;
562 -> 564 ;
565 [label="mse = 1.6875\nsamples = 4\nvalue = 2.25"] ;
564 -> 565 ;
566 [label="mse = 0.0\nsamples = 4\nvalue = 0.0"] ;
564 -> 566 ;
567 [label="X[5] <= 7319.0\nmse = 1.1716\nsamples = 13\nvalue = 2.5385"] ;
543 -> 567 ;
568 [label="mse = 0.0\nsamples = 7\nvalue = 3.0"] ;
567 -> 568 ;
569 [label="mse = 2.0\nsamples = 6\nvalue = 2.0"] ;
567 -> 569 ;
570 [label="X[2] <= 3.5\nmse = 1.9828\nsamples = 118\nvalue = 1.0932"] ;
528 -> 570 ;
571 [label="mse = 0.0\nsamples = 11\nvalue = 0.0"] ;
570 -> 571 ;
572 [label="X[5] <= 8249.5\nmse = 2.0512\nsamples = 107\nvalue = 1.2056"] ;
570 -> 572 ;
573 [label="mse = 0.0\nsamples = 8\nvalue = 0.0"] ;
572 -> 573 ;
574 [label="X[4] <= 51.5\nmse = 2.09\nsamples = 99\nvalue = 1.303"] ;
572 -> 574 ;
575 [label="X[1] <= 9130.5\nmse = 1.4722\nsamples = 12\nvalue = 2.1667"] ;
574 -> 575 ;
576 [label="mse = 0.0\nsamples = 4\nvalue = 3.0"] ;
575 -> 576 ;
577 [label="X[1] <= 17907.0\nmse = 1.6875\nsamples = 8\nvalue = 1.75"] ;
575 -> 577 ;
578 [label="mse = 1.1875\nsamples = 4\nvalue = 1.25"] ;
577 -> 578 ;
579 [label="mse = 1.6875\nsamples = 4\nvalue = 2.25"] ;
577 -> 579 ;
580 [label="X[5] <= 10816.5\nmse = 2.0581\nsamples = 87\nvalue = 1.1839"] ;
574 -> 580 ;
581 [label="X[2] <= 4.5\nmse = 2.1257\nsamples = 35\nvalue = 1.6"] ;
580 -> 581 ;
582 [label="X[5] <= 10498.5\nmse = 0.9844\nsamples = 8\nvalue = 2.625"] ;
581 -> 582 ;
583 [label="mse = 0.0\nsamples = 4\nvalue = 3.0"] ;
582 -> 583 ;
584 [label="mse = 1.6875\nsamples = 4\nvalue = 2.25"] ;
582 -> 584 ;
585 [label="X[1] <= 17803.5\nmse = 2.0604\nsamples = 27\nvalue = 1.2963"] ;
581 -> 585 ;
586 [label="X[5] <= 9809.5\nmse = 1.9722\nsamples = 12\nvalue = 1.8333"] ;
585 -> 586 ;
587 [label="X[1] <= 12831.0\nmse = 2.25\nsamples = 8\nvalue = 1.5"] ;
586 -> 587 ;
588 [label="mse = 1.6875\nsamples = 4\nvalue = 0.75"] ;
587 -> 588 ;
589 [label="mse = 1.6875\nsamples = 4\nvalue = 2.25"] ;
587 -> 589 ;
590 [label="mse = 0.75\nsamples = 4\nvalue = 2.5"] ;
586 -> 590 ;
591 [label="X[1] <= 20488.5\nmse = 1.7156\nsamples = 15\nvalue = 0.8667"] ;
585 -> 591 ;
592 [label="mse = 0.1224\nsamples = 7\nvalue = 0.1429"] ;
591 -> 592 ;
593 [label="X[2] <= 6.5\nmse = 2.25\nsamples = 8\nvalue = 1.5"] ;
591 -> 593 ;
594 [label="mse = 1.6875\nsamples = 4\nvalue = 0.75"] ;
593 -> 594 ;
595 [label="mse = 1.6875\nsamples = 4\nvalue = 2.25"] ;
593 -> 595 ;
596 [label="X[1] <= 16559.5\nmse = 1.8177\nsamples = 52\nvalue = 0.9038"] ;
580 -> 596 ;
597 [label="X[5] <= 11456.0\nmse = 0.4399\nsamples = 21\nvalue = 0.1905"] ;
596 -> 597 ;
598 [label="mse = 1.6875\nsamples = 4\nvalue = 0.75"] ;
597 -> 598 ;
599 [label="X[5] <= 11638.0\nmse = 0.0554\nsamples = 17\nvalue = 0.0588"] ;
597 -> 599 ;
600 [label="mse = 0.16\nsamples = 5\nvalue = 0.2"] ;
599 -> 600 ;
601 [label="mse = 0.0\nsamples = 12\nvalue = 0.0"] ;
599 -> 601 ;
602 [label="X[1] <= 20653.0\nmse = 2.1727\nsamples = 31\nvalue = 1.3871"] ;
596 -> 602 ;
603 [label="X[5] <= 13457.0\nmse = 2.0275\nsamples = 20\nvalue = 1.85"] ;
602 -> 603 ;
604 [label="X[5] <= 11863.0\nmse = 1.9336\nsamples = 16\nvalue = 2.0625"] ;
603 -> 604 ;
605 [label="X[5] <= 11625.0\nmse = 2.16\nsamples = 10\nvalue = 1.8"] ;
604 -> 605 ;
606 [label="mse = 2.25\nsamples = 4\nvalue = 1.5"] ;
605 -> 606 ;
607 [label="mse = 2.0\nsamples = 6\nvalue = 2.0"] ;
605 -> 607 ;
608 [label="mse = 1.25\nsamples = 6\nvalue = 2.5"] ;
604 -> 608 ;
609 [label="mse = 1.5\nsamples = 4\nvalue = 1.0"] ;
603 -> 609 ;
610 [label="X[1] <= 22399.5\nmse = 1.3388\nsamples = 11\nvalue = 0.5455"] ;
602 -> 610 ;
611 [label="mse = 0.0\nsamples = 5\nvalue = 0.0"] ;
610 -> 611 ;
612 [label="mse = 2.0\nsamples = 6\nvalue = 1.0"] ;
610 -> 612 ;
613 [label="X[0] <= 134.0\nmse = 1.1415\nsamples = 1330\nvalue = 0.4586"] ;
383 -> 613 ;
614 [label="X[3] <= 974.0\nmse = 1.3695\nsamples = 970\nvalue = 0.5794"] ;
613 -> 614 ;
615 [label="X[3] <= 740.5\nmse = 1.2585\nsamples = 904\nvalue = 0.5177"] ;
614 -> 615 ;
616 [label="X[3] <= 730.5\nmse = 2.046\nsamples = 106\nvalue = 1.1415"] ;
615 -> 616 ;
617 [label="X[3] <= 726.5\nmse = 0.6673\nsamples = 62\nvalue = 0.2419"] ;
616 -> 617 ;
618 [label="mse = 0.0\nsamples = 49\nvalue = 0.0"] ;
617 -> 618 ;
619 [label="X[1] <= 16446.5\nmse = 2.1302\nsamples = 13\nvalue = 1.1538"] ;
617 -> 619 ;
620 [label="X[5] <= 11353.5\nmse = 0.9844\nsamples = 8\nvalue = 0.375"] ;
619 -> 620 ;
621 [label="mse = 1.6875\nsamples = 4\nvalue = 0.75"] ;
620 -> 621 ;
622 [label="mse = 0.0\nsamples = 4\nvalue = 0.0"] ;
620 -> 622 ;
623 [label="mse = 1.44\nsamples = 5\nvalue = 2.4"] ;
619 -> 623 ;
624 [label="X[1] <= 1376.5\nmse = 1.2417\nsamples = 44\nvalue = 2.4091"] ;
616 -> 624 ;
625 [label="X[5] <= 9371.0\nmse = 0.6875\nsamples = 24\nvalue = 2.75"] ;
624 -> 625 ;
626 [label="mse = 0.0\nsamples = 14\nvalue = 3.0"] ;
625 -> 626 ;
627 [label="X[2] <= 5.5\nmse = 1.44\nsamples = 10\nvalue = 2.4"] ;
625 -> 627 ;
628 [label="mse = 2.16\nsamples = 5\nvalue = 1.8"] ;
627 -> 628 ;
629 [label="mse = 0.0\nsamples = 5\nvalue = 3.0"] ;
627 -> 629 ;
630 [label="X[5] <= 6182.0\nmse = 1.6\nsamples = 20\nvalue = 2.0"] ;
624 -> 630 ;
631 [label="mse = 0.5556\nsamples = 6\nvalue = 2.6667"] ;
630 -> 631 ;
632 [label="X[2] <= 5.5\nmse = 1.7755\nsamples = 14\nvalue = 1.7143"] ;
630 -> 632 ;
633 [label="mse = 1.7143\nsamples = 7\nvalue = 1.0"] ;
632 -> 633 ;
634 [label="mse = 0.8163\nsamples = 7\nvalue = 2.4286"] ;
632 -> 634 ;
635 [label="X[3] <= 865.5\nmse = 1.0954\nsamples = 798\nvalue = 0.4348"] ;
615 -> 635 ;
636 [label="X[1] <= 2023.0\nmse = 0.5587\nsamples = 332\nvalue = 0.2018"] ;
635 -> 636 ;
637 [label="X[4] <= 44.5\nmse = 0.1104\nsamples = 161\nvalue = 0.0373"] ;
636 -> 637 ;
638 [label="X[2] <= 5.0\nmse = 0.7438\nsamples = 11\nvalue = 0.2727"] ;
637 -> 638 ;
639 [label="mse = 1.25\nsamples = 6\nvalue = 0.5"] ;
638 -> 639 ;
640 [label="mse = 0.0\nsamples = 5\nvalue = 0.0"] ;
638 -> 640 ;
641 [label="X[3] <= 797.0\nmse = 0.0596\nsamples = 150\nvalue = 0.02"] ;
637 -> 641 ;
642 [label="mse = 0.0\nsamples = 133\nvalue = 0.0"] ;
641 -> 642 ;
643 [label="X[2] <= 6.5\nmse = 0.4983\nsamples = 17\nvalue = 0.1765"] ;
641 -> 643 ;
644 [label="mse = 0.0\nsamples = 10\nvalue = 0.0"] ;
643 -> 644 ;
645 [label="mse = 1.102\nsamples = 7\nvalue = 0.4286"] ;
643 -> 645 ;
646 [label="X[5] <= 405.5\nmse = 0.9312\nsamples = 171\nvalue = 0.3567"] ;
636 -> 646 ;
647 [label="mse = 2.16\nsamples = 5\nvalue = 1.2"] ;
646 -> 647 ;
648 [label="X[5] <= 6497.5\nmse = 0.8722\nsamples = 166\nvalue = 0.3313"] ;
646 -> 648 ;
649 [label="X[2] <= 2.5\nmse = 0.341\nsamples = 53\nvalue = 0.1321"] ;
648 -> 649 ;
650 [label="mse = 1.36\nsamples = 5\nvalue = 0.8"] ;
649 -> 650 ;
651 [label="X[1] <= 22914.5\nmse = 0.1836\nsamples = 48\nvalue = 0.0625"] ;
649 -> 651 ;
652 [label="mse = 0.0\nsamples = 38\nvalue = 0.0"] ;
651 -> 652 ;
653 [label="X[1] <= 24545.5\nmse = 0.81\nsamples = 10\nvalue = 0.3"] ;
651 -> 653 ;
654 [label="mse = 1.6875\nsamples = 4\nvalue = 0.75"] ;
653 -> 654 ;
655 [label="mse = 0.0\nsamples = 6\nvalue = 0.0"] ;
653 -> 655 ;
656 [label="X[5] <= 9329.5\nmse = 1.0939\nsamples = 113\nvalue = 0.4248"] ;
648 -> 656 ;
657 [label="X[1] <= 12053.0\nmse = 1.6043\nsamples = 56\nvalue = 0.6964"] ;
656 -> 657 ;
658 [label="X[2] <= 4.5\nmse = 2.037\nsamples = 26\nvalue = 1.0385"] ;
657 -> 658 ;
659 [label="X[1] <= 4873.5\nmse = 1.04\nsamples = 15\nvalue = 0.4"] ;
658 -> 659 ;
660 [label="mse = 2.0\nsamples = 6\nvalue = 1.0"] ;
659 -> 660 ;
661 [label="mse = 0.0\nsamples = 9\nvalue = 0.0"] ;
659 -> 661 ;
662 [label="X[1] <= 8390.5\nmse = 2.0826\nsamples = 11\nvalue = 1.9091"] ;
658 -> 662 ;
663 [label="mse = 1.6875\nsamples = 4\nvalue = 0.75"] ;
662 -> 663 ;
664 [label="mse = 1.102\nsamples = 7\nvalue = 2.5714"] ;
662 -> 664 ;
665 [label="X[1] <= 24890.0\nmse = 1.04\nsamples = 30\nvalue = 0.4"] ;
657 -> 665 ;
666 [label="X[5] <= 8026.5\nmse = 0.6391\nsamples = 26\nvalue = 0.2308"] ;
665 -> 666 ;
667 [label="X[1] <= 20868.0\nmse = 1.25\nsamples = 12\nvalue = 0.5"] ;
666 -> 667 ;
668 [label="mse = 1.8367\nsamples = 7\nvalue = 0.8571"] ;
667 -> 668 ;
669 [label="mse = 0.0\nsamples = 5\nvalue = 0.0"] ;
667 -> 669 ;
670 [label="mse = 0.0\nsamples = 14\nvalue = 0.0"] ;
666 -> 670 ;
671 [label="mse = 2.25\nsamples = 4\nvalue = 1.5"] ;
665 -> 671 ;
672 [label="X[5] <= 11246.5\nmse = 0.4488\nsamples = 57\nvalue = 0.1579"] ;
656 -> 672 ;
673 [label="X[5] <= 10910.5\nmse = 0.7438\nsamples = 33\nvalue = 0.2727"] ;
672 -> 673 ;
674 [label="X[2] <= 6.5\nmse = 0.3456\nsamples = 25\nvalue = 0.12"] ;
673 -> 674 ;
675 [label="mse = 0.0\nsamples = 19\nvalue = 0.0"] ;
674 -> 675 ;
676 [label="mse = 1.25\nsamples = 6\nvalue = 0.5"] ;
674 -> 676 ;
677 [label="X[1] <= 6459.5\nmse = 1.6875\nsamples = 8\nvalue = 0.75"] ;
673 -> 677 ;
678 [label="mse = 0.0\nsamples = 4\nvalue = 0.0"] ;
677 -> 678 ;
679 [label="mse = 2.25\nsamples = 4\nvalue = 1.5"] ;
677 -> 679 ;
680 [label="mse = 0.0\nsamples = 24\nvalue = 0.0"] ;
672 -> 680 ;
681 [label="X[3] <= 879.5\nmse = 1.4115\nsamples = 466\nvalue = 0.6009"] ;
635 -> 681 ;
682 [label="X[5] <= 911.5\nmse = 1.9584\nsamples = 62\nvalue = 1.9032"] ;
681 -> 682 ;
683 [label="mse = 0.1389\nsamples = 6\nvalue = 0.1667"] ;
682 -> 683 ;
684 [label="X[1] <= 19831.5\nmse = 1.7956\nsamples = 56\nvalue = 2.0893"] ;
682 -> 684 ;
685 [label="X[5] <= 10922.0\nmse = 1.9822\nsamples = 45\nvalue = 1.8667"] ;
684 -> 685 ;
686 [label="X[2] <= 5.5\nmse = 1.5289\nsamples = 30\nvalue = 2.2667"] ;
685 -> 686 ;
687 [label="X[1] <= 858.5\nmse = 1.8685\nsamples = 17\nvalue = 1.8824"] ;
686 -> 687 ;
688 [label="X[5] <= 9693.0\nmse = 1.3388\nsamples = 11\nvalue = 2.4545"] ;
687 -> 688 ;
689 [label="mse = 0.0\nsamples = 6\nvalue = 3.0"] ;
688 -> 689 ;
690 [label="mse = 2.16\nsamples = 5\nvalue = 1.8"] ;
688 -> 690 ;
691 [label="mse = 1.1389\nsamples = 6\nvalue = 0.8333"] ;
687 -> 691 ;
692 [label="X[5] <= 10144.5\nmse = 0.6391\nsamples = 13\nvalue = 2.7692"] ;
686 -> 692 ;
693 [label="mse = 0.0\nsamples = 9\nvalue = 3.0"] ;
692 -> 693 ;
694 [label="mse = 1.6875\nsamples = 4\nvalue = 2.25"] ;
692 -> 694 ;
695 [label="X[2] <= 5.5\nmse = 1.9289\nsamples = 15\nvalue = 1.0667"] ;
685 -> 695 ;
696 [label="mse = 0.0\nsamples = 5\nvalue = 0.0"] ;
695 -> 696 ;
697 [label="X[1] <= 6646.0\nmse = 2.04\nsamples = 10\nvalue = 1.6"] ;
695 -> 697 ;
698 [label="mse = 1.8056\nsamples = 6\nvalue = 1.1667"] ;
697 -> 698 ;
699 [label="mse = 1.6875\nsamples = 4\nvalue = 2.25"] ;
697 -> 699 ;
700 [label="mse = 0.0\nsamples = 11\nvalue = 3.0"] ;
684 -> 700 ;
701 [label="X[1] <= 618.5\nmse = 1.0273\nsamples = 404\nvalue = 0.401"] ;
681 -> 701 ;
702 [label="X[5] <= 5546.0\nmse = 0.5899\nsamples = 156\nvalue = 0.2115"] ;
701 -> 702 ;
703 [label="mse = 0.0\nsamples = 40\nvalue = 0.0"] ;
702 -> 703 ;
704 [label="X[5] <= 10237.0\nmse = 0.7725\nsamples = 116\nvalue = 0.2845"] ;
702 -> 704 ;
705 [label="X[5] <= 9870.5\nmse = 1.2881\nsamples = 52\nvalue = 0.5192"] ;
704 -> 705 ;
706 [label="X[5] <= 7310.5\nmse = 0.8398\nsamples = 48\nvalue = 0.3125"] ;
705 -> 706 ;
707 [label="X[5] <= 6810.0\nmse = 1.44\nsamples = 20\nvalue = 0.6"] ;
706 -> 707 ;
708 [label="X[5] <= 5931.5\nmse = 0.9844\nsamples = 16\nvalue = 0.375"] ;
707 -> 708 ;
709 [label="mse = 1.44\nsamples = 5\nvalue = 0.6"] ;
708 -> 709 ;
710 [label="X[2] <= 4.5\nmse = 0.7438\nsamples = 11\nvalue = 0.2727"] ;
708 -> 710 ;
711 [label="mse = 1.6875\nsamples = 4\nvalue = 0.75"] ;
710 -> 711 ;
712 [label="mse = 0.0\nsamples = 7\nvalue = 0.0"] ;
710 -> 712 ;
713 [label="mse = 2.25\nsamples = 4\nvalue = 1.5"] ;
707 -> 713 ;
714 [label="X[5] <= 9147.5\nmse = 0.3099\nsamples = 28\nvalue = 0.1071"] ;
706 -> 714 ;
715 [label="mse = 0.0\nsamples = 24\nvalue = 0.0"] ;
714 -> 715 ;
716 [label="mse = 1.6875\nsamples = 4\nvalue = 0.75"] ;
714 -> 716 ;
717 [label="mse = 0.0\nsamples = 4\nvalue = 3.0"] ;
705 -> 717 ;
718 [label="X[3] <= 955.5\nmse = 0.2725\nsamples = 64\nvalue = 0.0938"] ;
704 -> 718 ;
719 [label="X[2] <= 6.5\nmse = 0.1551\nsamples = 57\nvalue = 0.0526"] ;
718 -> 719 ;
720 [label="mse = 0.0\nsamples = 39\nvalue = 0.0"] ;
719 -> 720 ;
721 [label="X[5] <= 11601.5\nmse = 0.4722\nsamples = 18\nvalue = 0.1667"] ;
719 -> 721 ;
722 [label="X[5] <= 11114.0\nmse = 0.8889\nsamples = 9\nvalue = 0.3333"] ;
721 -> 722 ;
723 [label="mse = 0.0\nsamples = 4\nvalue = 0.0"] ;
722 -> 723 ;
724 [label="mse = 1.44\nsamples = 5\nvalue = 0.6"] ;
722 -> 724 ;
725 [label="mse = 0.0\nsamples = 9\nvalue = 0.0"] ;
721 -> 725 ;
726 [label="mse = 1.102\nsamples = 7\nvalue = 0.4286"] ;
718 -> 726 ;
727 [label="X[1] <= 1496.5\nmse = 1.2657\nsamples = 248\nvalue = 0.5202"] ;
701 -> 727 ;
728 [label="X[1] <= 1432.5\nmse = 2.25\nsamples = 12\nvalue = 1.5"] ;
727 -> 728 ;
729 [label="mse = 1.102\nsamples = 7\nvalue = 0.4286"] ;
728 -> 729 ;
730 [label="mse = 0.0\nsamples = 5\nvalue = 3.0"] ;
728 -> 730 ;
731 [label="X[1] <= 8361.0\nmse = 1.1644\nsamples = 236\nvalue = 0.4703"] ;
727 -> 731 ;
732 [label="X[3] <= 955.5\nmse = 0.2142\nsamples = 41\nvalue = 0.0732"] ;
731 -> 732 ;
733 [label="mse = 0.0\nsamples = 32\nvalue = 0.0"] ;
732 -> 733 ;
734 [label="X[1] <= 4283.0\nmse = 0.8889\nsamples = 9\nvalue = 0.3333"] ;
732 -> 734 ;
735 [label="mse = 1.6875\nsamples = 4\nvalue = 0.75"] ;
734 -> 735 ;
736 [label="mse = 0.0\nsamples = 5\nvalue = 0.0"] ;
734 -> 736 ;
737 [label="X[3] <= 915.0\nmse = 1.324\nsamples = 195\nvalue = 0.5538"] ;
731 -> 737 ;
738 [label="mse = 0.0\nsamples = 25\nvalue = 0.0"] ;
737 -> 738 ;
739 [label="X[5] <= 9848.0\nmse = 1.467\nsamples = 170\nvalue = 0.6353"] ;
737 -> 739 ;
740 [label="X[5] <= 4736.0\nmse = 1.1607\nsamples = 125\nvalue = 0.464"] ;
739 -> 740 ;
741 [label="X[1] <= 13616.0\nmse = 1.8802\nsamples = 37\nvalue = 0.8919"] ;
740 -> 741 ;
742 [label="X[4] <= 55.5\nmse = 0.6875\nsamples = 12\nvalue = 0.25"] ;
741 -> 742 ;
743 [label="mse = 1.6875\nsamples = 4\nvalue = 0.75"] ;
742 -> 743 ;
744 [label="mse = 0.0\nsamples = 8\nvalue = 0.0"] ;
742 -> 744 ;
745 [label="X[5] <= 3074.5\nmse = 2.16\nsamples = 25\nvalue = 1.2"] ;
741 -> 745 ;
746 [label="X[5] <= 850.0\nmse = 1.9446\nsamples = 19\nvalue = 0.9474"] ;
745 -> 746 ;
747 [label="mse = 2.16\nsamples = 5\nvalue = 1.8"] ;
746 -> 747 ;
748 [label="X[1] <= 20640.5\nmse = 1.5153\nsamples = 14\nvalue = 0.6429"] ;
746 -> 748 ;
749 [label="mse = 2.2041\nsamples = 7\nvalue = 1.2857"] ;
748 -> 749 ;
750 [label="mse = 0.0\nsamples = 7\nvalue = 0.0"] ;
748 -> 750 ;
751 [label="mse = 2.0\nsamples = 6\nvalue = 2.0"] ;
745 -> 751 ;
752 [label="X[3] <= 957.5\nmse = 0.7488\nsamples = 88\nvalue = 0.2841"] ;
740 -> 752 ;
753 [label="X[3] <= 928.5\nmse = 0.4071\nsamples = 65\nvalue = 0.1538"] ;
752 -> 753 ;
754 [label="X[5] <= 8047.0\nmse = 1.1475\nsamples = 20\nvalue = 0.45"] ;
753 -> 754 ;
755 [label="mse = 0.0\nsamples = 12\nvalue = 0.0"] ;
754 -> 755 ;
756 [label="X[2] <= 5.0\nmse = 2.1094\nsamples = 8\nvalue = 1.125"] ;
754 -> 756 ;
757 [label="mse = 2.25\nsamples = 4\nvalue = 1.5"] ;
756 -> 757 ;
758 [label="mse = 1.6875\nsamples = 4\nvalue = 0.75"] ;
756 -> 758 ;
759 [label="X[1] <= 12509.5\nmse = 0.0217\nsamples = 45\nvalue = 0.0222"] ;
753 -> 759 ;
760 [label="mse = 0.1224\nsamples = 7\nvalue = 0.1429"] ;
759 -> 760 ;
761 [label="mse = 0.0\nsamples = 38\nvalue = 0.0"] ;
759 -> 761 ;
762 [label="X[5] <= 7779.0\nmse = 1.5312\nsamples = 23\nvalue = 0.6522"] ;
752 -> 762 ;
763 [label="X[2] <= 6.5\nmse = 0.8889\nsamples = 18\nvalue = 0.3333"] ;
762 -> 763 ;
764 [label="mse = 0.0\nsamples = 8\nvalue = 0.0"] ;
763 -> 764 ;
765 [label="X[4] <= 64.5\nmse = 1.44\nsamples = 10\nvalue = 0.6"] ;
763 -> 765 ;
766 [label="mse = 1.6875\nsamples = 4\nvalue = 0.75"] ;
765 -> 766 ;
767 [label="mse = 1.25\nsamples = 6\nvalue = 0.5"] ;
765 -> 767 ;
768 [label="mse = 2.16\nsamples = 5\nvalue = 1.8"] ;
762 -> 768 ;
769 [label="X[1] <= 10259.0\nmse = 2.0099\nsamples = 45\nvalue = 1.1111"] ;
739 -> 769 ;
770 [label="X[4] <= 64.5\nmse = 2.0\nsamples = 15\nvalue = 2.0"] ;
769 -> 770 ;
771 [label="X[4] <= 55.5\nmse = 2.25\nsamples = 8\nvalue = 1.5"] ;
770 -> 771 ;
772 [label="mse = 1.6875\nsamples = 4\nvalue = 2.25"] ;
771 -> 772 ;
773 [label="mse = 1.6875\nsamples = 4\nvalue = 0.75"] ;
771 -> 773 ;
774 [label="mse = 1.102\nsamples = 7\nvalue = 2.5714"] ;
770 -> 774 ;
775 [label="X[5] <= 11266.0\nmse = 1.4222\nsamples = 30\nvalue = 0.6667"] ;
769 -> 775 ;
776 [label="mse = 1.6875\nsamples = 4\nvalue = 1.75"] ;
775 -> 776 ;
777 [label="X[1] <= 16495.0\nmse = 1.1731\nsamples = 26\nvalue = 0.5"] ;
775 -> 777 ;
778 [label="mse = 0.0\nsamples = 10\nvalue = 0.0"] ;
777 -> 778 ;
779 [label="X[1] <= 20321.0\nmse = 1.6523\nsamples = 16\nvalue = 0.8125"] ;
777 -> 779 ;
780 [label="mse = 1.8889\nsamples = 6\nvalue = 1.6667"] ;
779 -> 780 ;
781 [label="X[5] <= 13118.0\nmse = 0.81\nsamples = 10\nvalue = 0.3"] ;
779 -> 781 ;
782 [label="mse = 0.0\nsamples = 6\nvalue = 0.0"] ;
781 -> 782 ;
783 [label="mse = 1.6875\nsamples = 4\nvalue = 0.75"] ;
781 -> 783 ;
784 [label="X[3] <= 985.0\nmse = 2.123\nsamples = 66\nvalue = 1.4242"] ;
614 -> 784 ;
785 [label="X[5] <= 11570.5\nmse = 1.8563\nsamples = 35\nvalue = 1.9714"] ;
784 -> 785 ;
786 [label="X[2] <= 4.5\nmse = 1.9324\nsamples = 28\nvalue = 1.8214"] ;
785 -> 786 ;
787 [label="mse = 2.2041\nsamples = 7\nvalue = 1.2857"] ;
786 -> 787 ;
788 [label="X[3] <= 980.0\nmse = 1.7143\nsamples = 21\nvalue = 2.0"] ;
786 -> 788 ;
789 [label="X[1] <= 5594.5\nmse = 1.0764\nsamples = 12\nvalue = 2.4167"] ;
788 -> 789 ;
790 [label="mse = 0.0\nsamples = 5\nvalue = 3.0"] ;
789 -> 790 ;
791 [label="mse = 1.4286\nsamples = 7\nvalue = 2.0"] ;
789 -> 791 ;
792 [label="X[1] <= 2546.5\nmse = 2.0247\nsamples = 9\nvalue = 1.4444"] ;
788 -> 792 ;
793 [label="mse = 1.6875\nsamples = 4\nvalue = 0.75"] ;
792 -> 793 ;
794 [label="mse = 1.6\nsamples = 5\nvalue = 2.0"] ;
792 -> 794 ;
795 [label="mse = 1.102\nsamples = 7\nvalue = 2.5714"] ;
785 -> 795 ;
796 [label="X[2] <= 6.5\nmse = 1.7045\nsamples = 31\nvalue = 0.8065"] ;
784 -> 796 ;
797 [label="X[3] <= 1087.5\nmse = 0.7937\nsamples = 21\nvalue = 0.3333"] ;
796 -> 797 ;
798 [label="X[5] <= 6751.0\nmse = 1.41\nsamples = 10\nvalue = 0.7"] ;
797 -> 798 ;
799 [label="mse = 2.25\nsamples = 4\nvalue = 1.5"] ;
798 -> 799 ;
800 [label="mse = 0.1389\nsamples = 6\nvalue = 0.1667"] ;
798 -> 800 ;
801 [label="mse = 0.0\nsamples = 11\nvalue = 0.0"] ;
797 -> 801 ;
802 [label="X[1] <= 4725.0\nmse = 2.16\nsamples = 10\nvalue = 1.8"] ;
796 -> 802 ;
803 [label="mse = 2.0\nsamples = 6\nvalue = 1.0"] ;
802 -> 803 ;
804 [label="mse = 0.0\nsamples = 4\nvalue = 3.0"] ;
802 -> 804 ;
805 [label="X[1] <= 3128.5\nmse = 0.3822\nsamples = 360\nvalue = 0.1333"] ;
613 -> 805 ;
806 [label="X[5] <= 9829.5\nmse = 0.0942\nsamples = 189\nvalue = 0.0317"] ;
805 -> 806 ;
807 [label="mse = 0.0\nsamples = 129\nvalue = 0.0"] ;
806 -> 807 ;
808 [label="X[5] <= 10348.5\nmse = 0.29\nsamples = 60\nvalue = 0.1"] ;
806 -> 808 ;
809 [label="mse = 1.44\nsamples = 5\nvalue = 0.6"] ;
808 -> 809 ;
810 [label="X[2] <= 3.5\nmse = 0.1607\nsamples = 55\nvalue = 0.0545"] ;
808 -> 810 ;
811 [label="X[3] <= 1155.5\nmse = 0.6875\nsamples = 12\nvalue = 0.25"] ;
810 -> 811 ;
812 [label="mse = 0.0\nsamples = 8\nvalue = 0.0"] ;
811 -> 812 ;
813 [label="mse = 1.6875\nsamples = 4\nvalue = 0.75"] ;
811 -> 813 ;
814 [label="mse = 0.0\nsamples = 43\nvalue = 0.0"] ;
810 -> 814 ;
815 [label="X[1] <= 4985.0\nmse = 0.6765\nsamples = 171\nvalue = 0.2456"] ;
805 -> 815 ;
816 [label="X[1] <= 4921.0\nmse = 2.1094\nsamples = 8\nvalue = 1.125"] ;
815 -> 816 ;
817 [label="mse = 2.25\nsamples = 4\nvalue = 1.5"] ;
816 -> 817 ;
818 [label="mse = 1.6875\nsamples = 4\nvalue = 0.75"] ;
816 -> 818 ;
819 [label="X[0] <= 426.5\nmse = 0.5664\nsamples = 163\nvalue = 0.2025"] ;
815 -> 819 ;
820 [label="X[4] <= 55.5\nmse = 0.2781\nsamples = 94\nvalue = 0.0957"] ;
819 -> 820 ;
821 [label="X[1] <= 15033.0\nmse = 0.6104\nsamples = 41\nvalue = 0.2195"] ;
820 -> 821 ;
822 [label="mse = 0.0\nsamples = 18\nvalue = 0.0"] ;
821 -> 822 ;
823 [label="X[1] <= 17489.0\nmse = 1.0208\nsamples = 23\nvalue = 0.3913"] ;
821 -> 823 ;
824 [label="mse = 1.8367\nsamples = 7\nvalue = 0.8571"] ;
823 -> 824 ;
825 [label="X[5] <= 11112.0\nmse = 0.5273\nsamples = 16\nvalue = 0.1875"] ;
823 -> 825 ;
826 [label="mse = 0.0\nsamples = 12\nvalue = 0.0"] ;
825 -> 826 ;
827 [label="mse = 1.6875\nsamples = 4\nvalue = 0.75"] ;
825 -> 827 ;
828 [label="mse = 0.0\nsamples = 53\nvalue = 0.0"] ;
820 -> 828 ;
829 [label="X[5] <= 11763.5\nmse = 0.9225\nsamples = 69\nvalue = 0.3478"] ;
819 -> 829 ;
830 [label="X[5] <= 9581.5\nmse = 1.1903\nsamples = 51\nvalue = 0.4706"] ;
829 -> 830 ;
831 [label="X[3] <= 991.0\nmse = 0.9439\nsamples = 42\nvalue = 0.3571"] ;
830 -> 831 ;
832 [label="X[4] <= 60.0\nmse = 1.89\nsamples = 10\nvalue = 0.9"] ;
831 -> 832 ;
833 [label="mse = 0.0\nsamples = 4\nvalue = 0.0"] ;
832 -> 833 ;
834 [label="mse = 2.25\nsamples = 6\nvalue = 1.5"] ;
832 -> 834 ;
835 [label="X[1] <= 16332.5\nmse = 0.5273\nsamples = 32\nvalue = 0.1875"] ;
831 -> 835 ;
836 [label="mse = 0.0\nsamples = 17\nvalue = 0.0"] ;
835 -> 836 ;
837 [label="X[1] <= 20003.5\nmse = 1.04\nsamples = 15\nvalue = 0.4"] ;
835 -> 837 ;
838 [label="mse = 2.0\nsamples = 6\nvalue = 1.0"] ;
837 -> 838 ;
839 [label="mse = 0.0\nsamples = 9\nvalue = 0.0"] ;
837 -> 839 ;
840 [label="X[3] <= 1050.0\nmse = 2.0\nsamples = 9\nvalue = 1.0"] ;
830 -> 840 ;
841 [label="mse = 0.0\nsamples = 4\nvalue = 0.0"] ;
840 -> 841 ;
842 [label="mse = 2.16\nsamples = 5\nvalue = 1.8"] ;
840 -> 842 ;
843 [label="mse = 0.0\nsamples = 18\nvalue = 0.0"] ;
829 -> 843 ;
844 [label="X[0] <= 157.0\nmse = 2.0785\nsamples = 1943\nvalue = 1.2717"] ;
382 -> 844 ;
845 [label="X[1] <= 23203.5\nmse = 2.0999\nsamples = 1519\nvalue = 1.4483"] ;
844 -> 845 ;
846 [label="X[3] <= 973.0\nmse = 2.093\nsamples = 1407\nvalue = 1.3902"] ;
845 -> 846 ;
847 [label="X[3] <= 880.5\nmse = 2.0761\nsamples = 1306\nvalue = 1.3315"] ;
846 -> 847 ;
848 [label="X[1] <= 252.5\nmse = 2.0755\nsamples = 1059\nvalue = 1.4721"] ;
847 -> 848 ;
849 [label="X[3] <= 686.0\nmse = 2.0677\nsamples = 421\nvalue = 1.2779"] ;
848 -> 849 ;
850 [label="X[2] <= 10.5\nmse = 1.0727\nsamples = 17\nvalue = 2.5294"] ;
849 -> 850 ;
851 [label="X[5] <= 9807.5\nmse = 0.3951\nsamples = 9\nvalue = 2.7778"] ;
850 -> 851 ;
852 [label="mse = 0.0\nsamples = 4\nvalue = 3.0"] ;
851 -> 852 ;
853 [label="mse = 0.64\nsamples = 5\nvalue = 2.6"] ;
851 -> 853 ;
854 [label="X[5] <= 10216.5\nmse = 1.6875\nsamples = 8\nvalue = 2.25"] ;
850 -> 854 ;
855 [label="mse = 1.6875\nsamples = 4\nvalue = 2.25"] ;
854 -> 855 ;
856 [label="mse = 1.6875\nsamples = 4\nvalue = 2.25"] ;
854 -> 856 ;
857 [label="X[5] <= 13267.5\nmse = 2.0408\nsamples = 404\nvalue = 1.2252"] ;
849 -> 857 ;
858 [label="X[2] <= 8.5\nmse = 2.0523\nsamples = 392\nvalue = 1.2551"] ;
857 -> 858 ;
859 [label="X[5] <= 9837.0\nmse = 2.1756\nsamples = 81\nvalue = 1.5185"] ;
858 -> 859 ;
860 [label="X[5] <= 8588.0\nmse = 2.093\nsamples = 51\nvalue = 1.8431"] ;
859 -> 860 ;
861 [label="X[5] <= 7686.5\nmse = 2.2196\nsamples = 43\nvalue = 1.6744"] ;
860 -> 861 ;
862 [label="X[5] <= 3877.5\nmse = 2.1503\nsamples = 38\nvalue = 1.8158"] ;
861 -> 862 ;
863 [label="X[5] <= 1255.0\nmse = 2.2222\nsamples = 18\nvalue = 1.3333"] ;
862 -> 863 ;
864 [label="X[5] <= 534.0\nmse = 1.7851\nsamples = 11\nvalue = 2.1818"] ;
863 -> 864 ;
865 [label="mse = 2.16\nsamples = 5\nvalue = 1.8"] ;
864 -> 865 ;
866 [label="mse = 1.25\nsamples = 6\nvalue = 2.5"] ;
864 -> 866 ;
867 [label="mse = 0.0\nsamples = 7\nvalue = 0.0"] ;
863 -> 867 ;
868 [label="X[5] <= 6810.0\nmse = 1.6875\nsamples = 20\nvalue = 2.25"] ;
862 -> 868 ;
869 [label="X[5] <= 6414.0\nmse = 1.9172\nsamples = 13\nvalue = 2.0769"] ;
868 -> 869 ;
870 [label="X[5] <= 5266.5\nmse = 1.5556\nsamples = 9\nvalue = 2.3333"] ;
869 -> 870 ;
871 [label="mse = 1.6875\nsamples = 4\nvalue = 2.25"] ;
870 -> 871 ;
872 [label="mse = 1.44\nsamples = 5\nvalue = 2.4"] ;
870 -> 872 ;
873 [label="mse = 2.25\nsamples = 4\nvalue = 1.5"] ;
869 -> 873 ;
874 [label="mse = 1.102\nsamples = 7\nvalue = 2.5714"] ;
868 -> 874 ;
875 [label="mse = 1.44\nsamples = 5\nvalue = 0.6"] ;
861 -> 875 ;
876 [label="X[5] <= 9600.5\nmse = 0.4375\nsamples = 8\nvalue = 2.75"] ;
860 -> 876 ;
877 [label="mse = 0.0\nsamples = 4\nvalue = 3.0"] ;
876 -> 877 ;
878 [label="mse = 0.75\nsamples = 4\nvalue = 2.5"] ;
876 -> 878 ;
879 [label="X[3] <= 741.0\nmse = 1.8322\nsamples = 30\nvalue = 0.9667"] ;
859 -> 879 ;
880 [label="X[5] <= 11558.0\nmse = 2.127\nsamples = 21\nvalue = 1.3333"] ;
879 -> 880 ;
881 [label="X[5] <= 11365.5\nmse = 1.6875\nsamples = 8\nvalue = 0.75"] ;
880 -> 881 ;
882 [label="mse = 1.6875\nsamples = 4\nvalue = 0.75"] ;
881 -> 882 ;
883 [label="mse = 1.6875\nsamples = 4\nvalue = 0.75"] ;
881 -> 883 ;
884 [label="X[5] <= 12453.5\nmse = 2.0592\nsamples = 13\nvalue = 1.6923"] ;
880 -> 884 ;
885 [label="mse = 1.8367\nsamples = 7\nvalue = 2.1429"] ;
884 -> 885 ;
886 [label="mse = 1.8056\nsamples = 6\nvalue = 1.1667"] ;
884 -> 886 ;
887 [label="X[3] <= 865.5\nmse = 0.0988\nsamples = 9\nvalue = 0.1111"] ;
879 -> 887 ;
888 [label="mse = 0.0\nsamples = 5\nvalue = 0.0"] ;
887 -> 888 ;
889 [label="mse = 0.1875\nsamples = 4\nvalue = 0.25"] ;
887 -> 889 ;
890 [label="X[5] <= 186.0\nmse = 1.9974\nsamples = 311\nvalue = 1.1865"] ;
858 -> 890 ;
891 [label="mse = 0.0\nsamples = 4\nvalue = 3.0"] ;
890 -> 891 ;
892 [label="X[3] <= 786.0\nmse = 1.98\nsamples = 307\nvalue = 1.1629"] ;
890 -> 892 ;
893 [label="X[3] <= 741.0\nmse = 1.9353\nsamples = 273\nvalue = 1.0989"] ;
892 -> 893 ;
894 [label="X[3] <= 724.5\nmse = 1.9704\nsamples = 256\nvalue = 1.1602"] ;
893 -> 894 ;
895 [label="X[3] <= 702.5\nmse = 1.9386\nsamples = 232\nvalue = 1.0733"] ;
894 -> 895 ;
896 [label="X[3] <= 694.5\nmse = 1.952\nsamples = 228\nvalue = 1.0921"] ;
895 -> 896 ;
897 [label="mse = 1.8367\nsamples = 7\nvalue = 1.8571"] ;
896 -> 897 ;
898 [label="X[5] <= 643.5\nmse = 1.9366\nsamples = 221\nvalue = 1.0679"] ;
896 -> 898 ;
899 [label="X[5] <= 391.5\nmse = 0.81\nsamples = 10\nvalue = 0.3"] ;
898 -> 899 ;
900 [label="mse = 1.6875\nsamples = 4\nvalue = 0.75"] ;
899 -> 900 ;
901 [label="mse = 0.0\nsamples = 6\nvalue = 0.0"] ;
899 -> 901 ;
902 [label="X[5] <= 710.0\nmse = 1.9607\nsamples = 211\nvalue = 1.1043"] ;
898 -> 902 ;
903 [label="mse = 0.96\nsamples = 5\nvalue = 2.2"] ;
902 -> 903 ;
904 [label="X[5] <= 13167.0\nmse = 1.9551\nsamples = 206\nvalue = 1.0777"] ;
902 -> 904 ;
905 [label="X[5] <= 11709.5\nmse = 1.9423\nsamples = 201\nvalue = 1.0547"] ;
904 -> 905 ;
906 [label="X[5] <= 11450.0\nmse = 1.9875\nsamples = 179\nvalue = 1.1117"] ;
905 -> 906 ;
907 [label="X[2] <= 9.5\nmse = 1.9392\nsamples = 174\nvalue = 1.0575"] ;
906 -> 907 ;
908 [label="X[5] <= 10404.0\nmse = 2.1709\nsamples = 39\nvalue = 1.3333"] ;
907 -> 908 ;
909 [label="X[5] <= 5018.5\nmse = 2.179\nsamples = 31\nvalue = 1.5806"] ;
908 -> 909 ;
910 [label="mse = 1.8367\nsamples = 7\nvalue = 2.1429"] ;
909 -> 910 ;
911 [label="X[5] <= 7030.5\nmse = 2.1597\nsamples = 24\nvalue = 1.4167"] ;
909 -> 911 ;
912 [label="mse = 1.102\nsamples = 7\nvalue = 0.5714"] ;
911 -> 912 ;
913 [label="X[5] <= 7581.5\nmse = 2.1799\nsamples = 17\nvalue = 1.7647"] ;
911 -> 913 ;
914 [label="mse = 1.8367\nsamples = 7\nvalue = 2.1429"] ;
913 -> 914 ;
915 [label="X[5] <= 9142.5\nmse = 2.25\nsamples = 10\nvalue = 1.5"] ;
913 -> 915 ;
916 [label="mse = 2.0\nsamples = 6\nvalue = 1.0"] ;
915 -> 916 ;
917 [label="mse = 1.6875\nsamples = 4\nvalue = 2.25"] ;
915 -> 917 ;
918 [label="X[5] <= 10987.0\nmse = 0.9844\nsamples = 8\nvalue = 0.375"] ;
908 -> 918 ;
919 [label="mse = 0.0\nsamples = 4\nvalue = 0.0"] ;
918 -> 919 ;
920 [label="mse = 1.6875\nsamples = 4\nvalue = 0.75"] ;
918 -> 920 ;
921 [label="X[5] <= 2212.5\nmse = 1.844\nsamples = 135\nvalue = 0.9778"] ;
907 -> 921 ;
922 [label="X[5] <= 1578.5\nmse = 1.301\nsamples = 17\nvalue = 0.5882"] ;
921 -> 922 ;
923 [label="X[5] <= 945.0\nmse = 1.719\nsamples = 11\nvalue = 0.9091"] ;
922 -> 923 ;
924 [label="mse = 1.25\nsamples = 6\nvalue = 0.5"] ;
923 -> 924 ;
925 [label="mse = 1.84\nsamples = 5\nvalue = 1.4"] ;
923 -> 925 ;
926 [label="mse = 0.0\nsamples = 6\nvalue = 0.0"] ;
922 -> 926 ;
927 [label="X[5] <= 5972.5\nmse = 1.8972\nsamples = 118\nvalue = 1.0339"] ;
921 -> 927 ;
928 [label="X[5] <= 5863.5\nmse = 2.1547\nsamples = 43\nvalue = 1.2791"] ;
927 -> 928 ;
929 [label="X[2] <= 10.5\nmse = 2.0216\nsamples = 34\nvalue = 1.0882"] ;
928 -> 929 ;
930 [label="X[5] <= 3953.0\nmse = 1.4958\nsamples = 19\nvalue = 0.6316"] ;
929 -> 930 ;
931 [label="mse = 0.0\nsamples = 7\nvalue = 0.0"] ;
930 -> 931 ;
932 [label="X[5] <= 4222.5\nmse = 2.0\nsamples = 12\nvalue = 1.0"] ;
930 -> 932 ;
933 [label="mse = 2.25\nsamples = 4\nvalue = 1.5"] ;
932 -> 933 ;
934 [label="X[5] <= 5192.5\nmse = 1.6875\nsamples = 8\nvalue = 0.75"] ;
932 -> 934 ;
935 [label="mse = 1.6875\nsamples = 4\nvalue = 0.75"] ;
934 -> 935 ;
936 [label="mse = 1.6875\nsamples = 4\nvalue = 0.75"] ;
934 -> 936 ;
937 [label="X[5] <= 4155.5\nmse = 2.0889\nsamples = 15\nvalue = 1.6667"] ;
929 -> 937 ;
938 [label="X[5] <= 3891.5\nmse = 1.56\nsamples = 10\nvalue = 2.2"] ;
937 -> 938 ;
939 [label="mse = 2.0\nsamples = 6\nvalue = 2.0"] ;
938 -> 939 ;
940 [label="mse = 0.75\nsamples = 4\nvalue = 2.5"] ;
938 -> 940 ;
941 [label="mse = 1.44\nsamples = 5\nvalue = 0.6"] ;
937 -> 941 ;
942 [label="mse = 2.0\nsamples = 9\nvalue = 2.0"] ;
928 -> 942 ;
943 [label="X[5] <= 6345.0\nmse = 1.6953\nsamples = 75\nvalue = 0.8933"] ;
927 -> 943 ;
944 [label="mse = 0.0\nsamples = 8\nvalue = 0.0"] ;
943 -> 944 ;
945 [label="X[5] <= 6682.0\nmse = 1.791\nsamples = 67\nvalue = 1.0"] ;
943 -> 945 ;
946 [label="mse = 1.6875\nsamples = 4\nvalue = 2.25"] ;
945 -> 946 ;
947 [label="X[5] <= 9890.5\nmse = 1.6921\nsamples = 63\nvalue = 0.9206"] ;
945 -> 947 ;
948 [label="X[5] <= 9756.0\nmse = 1.4933\nsamples = 45\nvalue = 0.8"] ;
947 -> 948 ;
949 [label="X[5] <= 6960.5\nmse = 1.5705\nsamples = 41\nvalue = 0.878"] ;
948 -> 949 ;
950 [label="mse = 0.2222\nsamples = 6\nvalue = 0.3333"] ;
949 -> 950 ;
951 [label="X[5] <= 8114.5\nmse = 1.742\nsamples = 35\nvalue = 0.9714"] ;
949 -> 951 ;
952 [label="X[5] <= 7656.0\nmse = 2.2041\nsamples = 14\nvalue = 1.2857"] ;
951 -> 952 ;
953 [label="mse = 1.6875\nsamples = 8\nvalue = 0.75"] ;
952 -> 953 ;
954 [label="mse = 2.0\nsamples = 6\nvalue = 2.0"] ;
952 -> 954 ;
955 [label="X[5] <= 8369.0\nmse = 1.3243\nsamples = 21\nvalue = 0.7619"] ;
951 -> 955 ;
956 [label="mse = 0.0\nsamples = 4\nvalue = 0.0"] ;
955 -> 956 ;
957 [label="X[5] <= 9190.0\nmse = 1.4671\nsamples = 17\nvalue = 0.9412"] ;
955 -> 957 ;
958 [label="X[5] <= 8553.0\nmse = 1.9375\nsamples = 8\nvalue = 1.25"] ;
957 -> 958 ;
959 [label="mse = 1.6875\nsamples = 4\nvalue = 0.75"] ;
958 -> 959 ;
960 [label="mse = 1.6875\nsamples = 4\nvalue = 1.75"] ;
958 -> 960 ;
961 [label="X[5] <= 9416.0\nmse = 0.8889\nsamples = 9\nvalue = 0.6667"] ;
957 -> 961 ;
962 [label="mse = 0.0\nsamples = 4\nvalue = 0.0"] ;
961 -> 962 ;
963 [label="mse = 0.96\nsamples = 5\nvalue = 1.2"] ;
961 -> 963 ;
964 [label="mse = 0.0\nsamples = 4\nvalue = 0.0"] ;
948 -> 964 ;
965 [label="X[5] <= 11296.5\nmse = 2.0617\nsamples = 18\nvalue = 1.2222"] ;
947 -> 965 ;
966 [label="X[2] <= 10.5\nmse = 2.25\nsamples = 12\nvalue = 1.5"] ;
965 -> 966 ;
967 [label="mse = 2.0\nsamples = 6\nvalue = 2.0"] ;
966 -> 967 ;
968 [label="mse = 2.0\nsamples = 6\nvalue = 1.0"] ;
966 -> 968 ;
969 [label="mse = 1.2222\nsamples = 6\nvalue = 0.6667"] ;
965 -> 969 ;
970 [label="mse = 0.0\nsamples = 5\nvalue = 3.0"] ;
906 -> 970 ;
971 [label="X[5] <= 11973.0\nmse = 1.3326\nsamples = 22\nvalue = 0.5909"] ;
905 -> 971 ;
972 [label="mse = 0.0\nsamples = 7\nvalue = 0.0"] ;
971 -> 972 ;
973 [label="X[5] <= 12440.5\nmse = 1.7156\nsamples = 15\nvalue = 0.8667"] ;
971 -> 973 ;
974 [label="mse = 2.2041\nsamples = 7\nvalue = 1.2857"] ;
973 -> 974 ;
975 [label="X[5] <= 12692.5\nmse = 1.0\nsamples = 8\nvalue = 0.5"] ;
973 -> 975 ;
976 [label="mse = 1.6875\nsamples = 4\nvalue = 0.75"] ;
975 -> 976 ;
977 [label="mse = 0.1875\nsamples = 4\nvalue = 0.25"] ;
975 -> 977 ;
978 [label="mse = 1.6\nsamples = 5\nvalue = 2.0"] ;
904 -> 978 ;
979 [label="mse = 0.0\nsamples = 4\nvalue = 0.0"] ;
895 -> 979 ;
980 [label="X[2] <= 9.5\nmse = 1.5\nsamples = 24\nvalue = 2.0"] ;
894 -> 980 ;
981 [label="mse = 1.5\nsamples = 4\nvalue = 1.0"] ;
980 -> 981 ;
982 [label="X[2] <= 10.5\nmse = 1.26\nsamples = 20\nvalue = 2.2"] ;
980 -> 982 ;
983 [label="X[5] <= 10078.0\nmse = 1.05\nsamples = 10\nvalue = 2.5"] ;
982 -> 983 ;
984 [label="mse = 0.0\nsamples = 6\nvalue = 3.0"] ;
983 -> 984 ;
985 [label="mse = 1.6875\nsamples = 4\nvalue = 1.75"] ;
983 -> 985 ;
986 [label="X[5] <= 5925.0\nmse = 1.29\nsamples = 10\nvalue = 1.9"] ;
982 -> 986 ;
987 [label="mse = 1.44\nsamples = 5\nvalue = 1.6"] ;
986 -> 987 ;
988 [label="mse = 0.96\nsamples = 5\nvalue = 2.2"] ;
986 -> 988 ;
989 [label="X[5] <= 3839.0\nmse = 0.4983\nsamples = 17\nvalue = 0.1765"] ;
893 -> 989 ;
990 [label="mse = 1.6875\nsamples = 4\nvalue = 0.75"] ;
989 -> 990 ;
991 [label="mse = 0.0\nsamples = 13\nvalue = 0.0"] ;
989 -> 991 ;
992 [label="X[5] <= 4788.0\nmse = 2.0424\nsamples = 34\nvalue = 1.6765"] ;
892 -> 992 ;
993 [label="mse = 0.1094\nsamples = 8\nvalue = 0.125"] ;
992 -> 993 ;
994 [label="X[5] <= 8624.5\nmse = 1.6686\nsamples = 26\nvalue = 2.1538"] ;
992 -> 994 ;
995 [label="X[5] <= 5972.5\nmse = 0.3056\nsamples = 12\nvalue = 2.8333"] ;
994 -> 995 ;
996 [label="mse = 0.75\nsamples = 4\nvalue = 2.5"] ;
995 -> 996 ;
997 [label="mse = 0.0\nsamples = 8\nvalue = 3.0"] ;
995 -> 997 ;
998 [label="X[5] <= 11186.0\nmse = 2.102\nsamples = 14\nvalue = 1.5714"] ;
994 -> 998 ;
999 [label="X[5] <= 10922.0\nmse = 1.5062\nsamples = 9\nvalue = 0.7778"] ;
998 -> 999 ;
1000 [label="mse = 2.16\nsamples = 5\nvalue = 1.2"] ;
999 -> 1000 ;
1001 [label="mse = 0.1875\nsamples = 4\nvalue = 0.25"] ;
999 -> 1001 ;
1002 [label="mse = 0.0\nsamples = 5\nvalue = 3.0"] ;
998 -> 1002 ;
1003 [label="X[5] <= 13491.5\nmse = 0.6875\nsamples = 12\nvalue = 0.25"] ;
857 -> 1003 ;
1004 [label="mse = 0.0\nsamples = 8\nvalue = 0.0"] ;
1003 -> 1004 ;
1005 [label="mse = 1.6875\nsamples = 4\nvalue = 0.75"] ;
1003 -> 1005 ;
1006 [label="X[3] <= 865.5\nmse = 2.0393\nsamples = 638\nvalue = 1.6003"] ;
848 -> 1006 ;
1007 [label="X[3] <= 740.5\nmse = 2.0612\nsamples = 589\nvalue = 1.545"] ;
1006 -> 1007 ;
1008 [label="X[1] <= 22457.0\nmse = 1.995\nsamples = 472\nvalue = 1.6483"] ;
1007 -> 1008 ;
1009 [label="X[3] <= 730.5\nmse = 1.9939\nsamples = 454\nvalue = 1.6894"] ;
1008 -> 1009 ;
1010 [label="X[1] <= 21405.0\nmse = 2.0285\nsamples = 408\nvalue = 1.625"] ;
1009 -> 1010 ;
1011 [label="X[1] <= 20200.5\nmse = 2.0292\nsamples = 399\nvalue = 1.6015"] ;
1010 -> 1011 ;
1012 [label="X[1] <= 16059.0\nmse = 2.0119\nsamples = 388\nvalue = 1.6469"] ;
1011 -> 1012 ;
1013 [label="X[1] <= 14860.0\nmse = 2.0594\nsamples = 263\nvalue = 1.5209"] ;
1012 -> 1013 ;
1014 [label="X[4] <= 64.5\nmse = 2.056\nsamples = 231\nvalue = 1.6104"] ;
1013 -> 1014 ;
1015 [label="X[5] <= 5983.0\nmse = 1.943\nsamples = 67\nvalue = 1.2388"] ;
1014 -> 1015 ;
1016 [label="X[5] <= 1012.5\nmse = 1.8367\nsamples = 28\nvalue = 1.8571"] ;
1015 -> 1016 ;
1017 [label="mse = 0.16\nsamples = 5\nvalue = 0.2"] ;
1016 -> 1017 ;
1018 [label="X[1] <= 5171.5\nmse = 1.4745\nsamples = 23\nvalue = 2.2174"] ;
1016 -> 1018 ;
1019 [label="mse = 0.0\nsamples = 10\nvalue = 3.0"] ;
1018 -> 1019 ;
1020 [label="X[1] <= 11006.0\nmse = 1.7751\nsamples = 13\nvalue = 1.6154"] ;
1018 -> 1020 ;
1021 [label="X[5] <= 3187.0\nmse = 1.5556\nsamples = 9\nvalue = 1.3333"] ;
1020 -> 1021 ;
1022 [label="mse = 1.36\nsamples = 5\nvalue = 0.8"] ;
1021 -> 1022 ;
1023 [label="mse = 1.0\nsamples = 4\nvalue = 2.0"] ;
1021 -> 1023 ;
1024 [label="mse = 1.6875\nsamples = 4\nvalue = 2.25"] ;
1020 -> 1024 ;
1025 [label="X[1] <= 11571.0\nmse = 1.5477\nsamples = 39\nvalue = 0.7949"] ;
1015 -> 1025 ;
1026 [label="X[5] <= 6830.0\nmse = 1.301\nsamples = 34\nvalue = 0.5882"] ;
1025 -> 1026 ;
1027 [label="mse = 0.0\nsamples = 9\nvalue = 0.0"] ;
1026 -> 1027 ;
1028 [label="X[5] <= 8523.5\nmse = 1.6\nsamples = 25\nvalue = 0.8"] ;
1026 -> 1028 ;
1029 [label="mse = 2.16\nsamples = 5\nvalue = 1.8"] ;
1028 -> 1029 ;
1030 [label="X[4] <= 55.0\nmse = 1.1475\nsamples = 20\nvalue = 0.55"] ;
1028 -> 1030 ;
1031 [label="X[5] <= 11930.0\nmse = 1.5764\nsamples = 12\nvalue = 0.9167"] ;
1030 -> 1031 ;
1032 [label="mse = 1.6875\nsamples = 4\nvalue = 1.75"] ;
1031 -> 1032 ;
1033 [label="mse = 1.0\nsamples = 8\nvalue = 0.5"] ;
1031 -> 1033 ;
1034 [label="mse = 0.0\nsamples = 8\nvalue = 0.0"] ;
1030 -> 1034 ;
1035 [label="mse = 0.96\nsamples = 5\nvalue = 2.2"] ;
1025 -> 1035 ;
1036 [label="X[3] <= 686.0\nmse = 2.0227\nsamples = 164\nvalue = 1.7622"] ;
1014 -> 1036 ;
1037 [label="X[5] <= 9812.5\nmse = 0.81\nsamples = 10\nvalue = 2.7"] ;
1036 -> 1037 ;
1038 [label="mse = 0.0\nsamples = 6\nvalue = 3.0"] ;
1037 -> 1038 ;
1039 [label="mse = 1.6875\nsamples = 4\nvalue = 2.25"] ;
1037 -> 1039 ;
1040 [label="X[1] <= 5235.5\nmse = 2.0406\nsamples = 154\nvalue = 1.7013"] ;
1036 -> 1040 ;
1041 [label="X[5] <= 9011.0\nmse = 1.9475\nsamples = 48\nvalue = 1.3958"] ;
1040 -> 1041 ;
1042 [label="X[1] <= 3358.5\nmse = 1.6524\nsamples = 26\nvalue = 0.9615"] ;
1041 -> 1042 ;
1043 [label="X[1] <= 2827.5\nmse = 1.7875\nsamples = 20\nvalue = 1.25"] ;
1042 -> 1043 ;
1044 [label="X[1] <= 2702.5\nmse = 1.5\nsamples = 16\nvalue = 1.0"] ;
1043 -> 1044 ;
1045 [label="X[2] <= 8.5\nmse = 1.84\nsamples = 10\nvalue = 1.4"] ;
1044 -> 1045 ;
1046 [label="mse = 1.5\nsamples = 4\nvalue = 1.0"] ;
1045 -> 1046 ;
1047 [label="mse = 1.8889\nsamples = 6\nvalue = 1.6667"] ;
1045 -> 1047 ;
1048 [label="mse = 0.2222\nsamples = 6\nvalue = 0.3333"] ;
1044 -> 1048 ;
1049 [label="mse = 1.6875\nsamples = 4\nvalue = 2.25"] ;
1043 -> 1049 ;
1050 [label="mse = 0.0\nsamples = 6\nvalue = 0.0"] ;
1042 -> 1050 ;
1051 [label="X[5] <= 11223.5\nmse = 1.8099\nsamples = 22\nvalue = 1.9091"] ;
1041 -> 1051 ;
1052 [label="mse = 0.5556\nsamples = 6\nvalue = 2.6667"] ;
1051 -> 1052 ;
1053 [label="X[1] <= 3766.5\nmse = 1.9844\nsamples = 16\nvalue = 1.625"] ;
1051 -> 1053 ;
1054 [label="X[1] <= 1244.5\nmse = 2.0826\nsamples = 11\nvalue = 1.9091"] ;
1053 -> 1054 ;
1055 [label="mse = 2.16\nsamples = 5\nvalue = 1.2"] ;
1054 -> 1055 ;
1056 [label="mse = 1.25\nsamples = 6\nvalue = 2.5"] ;
1054 -> 1056 ;
1057 [label="mse = 1.2\nsamples = 5\nvalue = 1.0"] ;
1053 -> 1057 ;
1058 [label="X[1] <= 7800.0\nmse = 2.0214\nsamples = 106\nvalue = 1.8396"] ;
1040 -> 1058 ;
1059 [label="X[2] <= 9.5\nmse = 1.0727\nsamples = 17\nvalue = 2.5294"] ;
1058 -> 1059 ;
1060 [label="mse = 0.0\nsamples = 7\nvalue = 3.0"] ;
1059 -> 1060 ;
1061 [label="X[1] <= 6444.5\nmse = 1.56\nsamples = 10\nvalue = 2.2"] ;
1059 -> 1061 ;
1062 [label="mse = 1.6875\nsamples = 4\nvalue = 1.75"] ;
1061 -> 1062 ;
1063 [label="mse = 1.25\nsamples = 6\nvalue = 2.5"] ;
1061 -> 1063 ;
1064 [label="X[1] <= 8650.0\nmse = 2.0944\nsamples = 89\nvalue = 1.7079"] ;
1058 -> 1064 ;
1065 [label="X[5] <= 2036.0\nmse = 2.1467\nsamples = 28\nvalue = 1.1786"] ;
1064 -> 1065 ;
1066 [label="mse = 0.0\nsamples = 4\nvalue = 0.0"] ;
1065 -> 1066 ;
1067 [label="X[2] <= 9.5\nmse = 2.2344\nsamples = 24\nvalue = 1.375"] ;
1065 -> 1067 ;
1068 [label="X[5] <= 8324.0\nmse = 1.7851\nsamples = 11\nvalue = 0.8182"] ;
1067 -> 1068 ;
1069 [label="mse = 2.2041\nsamples = 7\nvalue = 1.2857"] ;
1068 -> 1069 ;
1070 [label="mse = 0.0\nsamples = 4\nvalue = 0.0"] ;
1068 -> 1070 ;
1071 [label="X[1] <= 8490.0\nmse = 2.1302\nsamples = 13\nvalue = 1.8462"] ;
1067 -> 1071 ;
1072 [label="mse = 0.0\nsamples = 4\nvalue = 3.0"] ;
1071 -> 1072 ;
1073 [label="X[5] <= 7412.5\nmse = 2.2222\nsamples = 9\nvalue = 1.3333"] ;
1071 -> 1073 ;
1074 [label="mse = 2.25\nsamples = 4\nvalue = 1.5"] ;
1073 -> 1074 ;
1075 [label="mse = 2.16\nsamples = 5\nvalue = 1.2"] ;
1073 -> 1075 ;
1076 [label="X[5] <= 6716.5\nmse = 1.8828\nsamples = 61\nvalue = 1.9508"] ;
1064 -> 1076 ;
1077 [label="X[5] <= 917.0\nmse = 0.7872\nsamples = 22\nvalue = 2.5909"] ;
1076 -> 1077 ;
1078 [label="mse = 1.6875\nsamples = 4\nvalue = 1.75"] ;
1077 -> 1078 ;
1079 [label="X[5] <= 4164.0\nmse = 0.3951\nsamples = 18\nvalue = 2.7778"] ;
1077 -> 1079 ;
1080 [label="mse = 0.0\nsamples = 10\nvalue = 3.0"] ;
1079 -> 1080 ;
1081 [label="X[5] <= 6096.0\nmse = 0.75\nsamples = 8\nvalue = 2.5"] ;
1079 -> 1081 ;
1082 [label="mse = 1.0\nsamples = 4\nvalue = 2.0"] ;
1081 -> 1082 ;
1083 [label="mse = 0.0\nsamples = 4\nvalue = 3.0"] ;
1081 -> 1083 ;
1084 [label="X[1] <= 10711.5\nmse = 2.1394\nsamples = 39\nvalue = 1.5897"] ;
1076 -> 1084 ;
1085 [label="X[5] <= 12518.5\nmse = 1.9\nsamples = 20\nvalue = 2.0"] ;
1084 -> 1085 ;
1086 [label="X[1] <= 8788.5\nmse = 1.4648\nsamples = 16\nvalue = 2.3125"] ;
1085 -> 1086 ;
1087 [label="mse = 0.0\nsamples = 5\nvalue = 3.0"] ;
1086 -> 1087 ;
1088 [label="X[1] <= 9205.5\nmse = 1.8182\nsamples = 11\nvalue = 2.0"] ;
1086 -> 1088 ;
1089 [label="mse = 2.25\nsamples = 6\nvalue = 1.5"] ;
1088 -> 1089 ;
1090 [label="mse = 0.64\nsamples = 5\nvalue = 2.6"] ;
1088 -> 1090 ;
1091 [label="mse = 1.6875\nsamples = 4\nvalue = 0.75"] ;
1085 -> 1091 ;
1092 [label="X[5] <= 11398.0\nmse = 2.0277\nsamples = 19\nvalue = 1.1579"] ;
1084 -> 1092 ;
1093 [label="X[5] <= 8341.5\nmse = 1.5621\nsamples = 13\nvalue = 0.7692"] ;
1092 -> 1093 ;
1094 [label="mse = 1.8889\nsamples = 6\nvalue = 1.6667"] ;
1093 -> 1094 ;
1095 [label="mse = 0.0\nsamples = 7\nvalue = 0.0"] ;
1093 -> 1095 ;
1096 [label="mse = 2.0\nsamples = 6\nvalue = 2.0"] ;
1092 -> 1096 ;
1097 [label="X[1] <= 15218.0\nmse = 1.6094\nsamples = 32\nvalue = 0.875"] ;
1013 -> 1097 ;
1098 [label="X[5] <= 7049.5\nmse = 0.6222\nsamples = 15\nvalue = 0.3333"] ;
1097 -> 1098 ;
1099 [label="mse = 0.0\nsamples = 10\nvalue = 0.0"] ;
1098 -> 1099 ;
1100 [label="mse = 1.2\nsamples = 5\nvalue = 1.0"] ;
1098 -> 1100 ;
1101 [label="X[5] <= 8645.0\nmse = 1.9931\nsamples = 17\nvalue = 1.3529"] ;
1097 -> 1101 ;
1102 [label="X[1] <= 15732.5\nmse = 1.9722\nsamples = 12\nvalue = 1.8333"] ;
1101 -> 1102 ;
1103 [label="mse = 0.0\nsamples = 6\nvalue = 3.0"] ;
1102 -> 1103 ;
1104 [label="mse = 1.2222\nsamples = 6\nvalue = 0.6667"] ;
1102 -> 1104 ;
1105 [label="mse = 0.16\nsamples = 5\nvalue = 0.2"] ;
1101 -> 1105 ;
1106 [label="X[5] <= 13457.0\nmse = 1.8083\nsamples = 125\nvalue = 1.912"] ;
1012 -> 1106 ;
1107 [label="X[5] <= 11151.5\nmse = 1.7249\nsamples = 120\nvalue = 1.9917"] ;
1106 -> 1107 ;
1108 [label="X[5] <= 10512.0\nmse = 1.8335\nsamples = 93\nvalue = 1.8065"] ;
1107 -> 1108 ;
1109 [label="X[1] <= 16692.5\nmse = 1.8029\nsamples = 85\nvalue = 1.9059"] ;
1108 -> 1109 ;
1110 [label="mse = 0.4898\nsamples = 7\nvalue = 2.7143"] ;
1109 -> 1110 ;
1111 [label="X[1] <= 16797.5\nmse = 1.8568\nsamples = 78\nvalue = 1.8333"] ;
1109 -> 1111 ;
1112 [label="mse = 0.0\nsamples = 4\nvalue = 0.0"] ;
1111 -> 1112 ;
1113 [label="X[5] <= 3997.0\nmse = 1.7657\nsamples = 74\nvalue = 1.9324"] ;
1111 -> 1113 ;
1114 [label="X[1] <= 19328.0\nmse = 1.2342\nsamples = 29\nvalue = 2.2759"] ;
1113 -> 1114 ;
1115 [label="X[5] <= 1625.5\nmse = 1.4793\nsamples = 13\nvalue = 1.5385"] ;
1114 -> 1115 ;
1116 [label="X[1] <= 18648.5\nmse = 0.7654\nsamples = 9\nvalue = 0.8889"] ;
1115 -> 1116 ;
1117 [label="mse = 1.6875\nsamples = 4\nvalue = 0.75"] ;
1116 -> 1117 ;
1118 [label="mse = 0.0\nsamples = 5\nvalue = 1.0"] ;
1116 -> 1118 ;
1119 [label="mse = 0.0\nsamples = 4\nvalue = 3.0"] ;
1115 -> 1119 ;
1120 [label="X[2] <= 10.5\nmse = 0.2344\nsamples = 16\nvalue = 2.875"] ;
1114 -> 1120 ;
1121 [label="mse = 0.0\nsamples = 11\nvalue = 3.0"] ;
1120 -> 1121 ;
1122 [label="mse = 0.64\nsamples = 5\nvalue = 2.6"] ;
1120 -> 1122 ;
1123 [label="X[1] <= 19760.0\nmse = 1.9832\nsamples = 45\nvalue = 1.7111"] ;
1113 -> 1123 ;
1124 [label="X[5] <= 5058.0\nmse = 1.5969\nsamples = 28\nvalue = 2.2143"] ;
1123 -> 1124 ;
1125 [label="mse = 1.6875\nsamples = 4\nvalue = 0.75"] ;
1124 -> 1125 ;
1126 [label="X[5] <= 9363.0\nmse = 1.1649\nsamples = 24\nvalue = 2.4583"] ;
1124 -> 1126 ;
1127 [label="X[1] <= 18957.5\nmse = 0.94\nsamples = 20\nvalue = 2.6"] ;
1126 -> 1127 ;
1128 [label="X[5] <= 5977.5\nmse = 0.56\nsamples = 15\nvalue = 2.8"] ;
1127 -> 1128 ;
1129 [label="mse = 1.6875\nsamples = 4\nvalue = 2.25"] ;
1128 -> 1129 ;
1130 [label="mse = 0.0\nsamples = 11\nvalue = 3.0"] ;
1128 -> 1130 ;
1131 [label="mse = 1.6\nsamples = 5\nvalue = 2.0"] ;
1127 -> 1131 ;
1132 [label="mse = 1.6875\nsamples = 4\nvalue = 1.75"] ;
1126 -> 1132 ;
1133 [label="X[5] <= 8935.5\nmse = 1.5156\nsamples = 17\nvalue = 0.8824"] ;
1123 -> 1133 ;
1134 [label="X[2] <= 8.5\nmse = 1.1598\nsamples = 13\nvalue = 0.6154"] ;
1133 -> 1134 ;
1135 [label="mse = 0.0\nsamples = 4\nvalue = 0.0"] ;
1134 -> 1135 ;
1136 [label="X[5] <= 6103.5\nmse = 1.4321\nsamples = 9\nvalue = 0.8889"] ;
1134 -> 1136 ;
1137 [label="mse = 0.1875\nsamples = 4\nvalue = 0.25"] ;
1136 -> 1137 ;
1138 [label="mse = 1.84\nsamples = 5\nvalue = 1.4"] ;
1136 -> 1138 ;
1139 [label="mse = 1.6875\nsamples = 4\nvalue = 1.75"] ;
1133 -> 1139 ;
1140 [label="X[2] <= 10.5\nmse = 0.9375\nsamples = 8\nvalue = 0.75"] ;
1108 -> 1140 ;
1141 [label="mse = 1.5\nsamples = 4\nvalue = 1.0"] ;
1140 -> 1141 ;
1142 [label="mse = 0.25\nsamples = 4\nvalue = 0.5"] ;
1140 -> 1142 ;
1143 [label="X[5] <= 12456.5\nmse = 0.8258\nsamples = 27\nvalue = 2.6296"] ;
1107 -> 1143 ;
1144 [label="mse = 0.0\nsamples = 15\nvalue = 3.0"] ;
1143 -> 1144 ;
1145 [label="X[1] <= 20173.5\nmse = 1.4722\nsamples = 12\nvalue = 2.1667"] ;
1143 -> 1145 ;
1146 [label="mse = 1.6735\nsamples = 7\nvalue = 1.5714"] ;
1145 -> 1146 ;
1147 [label="mse = 0.0\nsamples = 5\nvalue = 3.0"] ;
1145 -> 1147 ;
1148 [label="mse = 0.0\nsamples = 5\nvalue = 0.0"] ;
1106 -> 1148 ;
1149 [label="mse = 0.0\nsamples = 11\nvalue = 0.0"] ;
1011 -> 1149 ;
1150 [label="X[1] <= 22172.5\nmse = 0.8889\nsamples = 9\nvalue = 2.6667"] ;
1010 -> 1150 ;
1151 [label="mse = 0.0\nsamples = 5\nvalue = 3.0"] ;
1150 -> 1151 ;
1152 [label="mse = 1.6875\nsamples = 4\nvalue = 2.25"] ;
1150 -> 1152 ;
1153 [label="X[1] <= 9241.0\nmse = 1.3233\nsamples = 46\nvalue = 2.2609"] ;
1009 -> 1153 ;
1154 [label="X[5] <= 9372.5\nmse = 0.4275\nsamples = 20\nvalue = 2.85"] ;
1153 -> 1154 ;
1155 [label="mse = 0.0\nsamples = 10\nvalue = 3.0"] ;
1154 -> 1155 ;
1156 [label="X[5] <= 10881.0\nmse = 0.81\nsamples = 10\nvalue = 2.7"] ;
1154 -> 1156 ;
1157 [label="mse = 1.6875\nsamples = 4\nvalue = 2.25"] ;
1156 -> 1157 ;
1158 [label="mse = 0.0\nsamples = 6\nvalue = 3.0"] ;
1156 -> 1158 ;
1159 [label="X[1] <= 9836.0\nmse = 1.5399\nsamples = 26\nvalue = 1.8077"] ;
1153 -> 1159 ;
1160 [label="mse = 0.25\nsamples = 4\nvalue = 0.5"] ;
1159 -> 1160 ;
1161 [label="X[1] <= 15132.0\nmse = 1.407\nsamples = 22\nvalue = 2.0455"] ;
1159 -> 1161 ;
1162 [label="mse = 0.4898\nsamples = 7\nvalue = 2.7143"] ;
1161 -> 1162 ;
1163 [label="X[1] <= 17371.5\nmse = 1.5289\nsamples = 15\nvalue = 1.7333"] ;
1161 -> 1163 ;
1164 [label="mse = 1.5\nsamples = 4\nvalue = 1.0"] ;
1163 -> 1164 ;
1165 [label="X[5] <= 7358.0\nmse = 1.2727\nsamples = 11\nvalue = 2.0"] ;
1163 -> 1165 ;
1166 [label="mse = 1.44\nsamples = 5\nvalue = 1.6"] ;
1165 -> 1166 ;
1167 [label="mse = 0.8889\nsamples = 6\nvalue = 2.3333"] ;
1165 -> 1167 ;
1168 [label="X[5] <= 6938.5\nmse = 0.9043\nsamples = 18\nvalue = 0.6111"] ;
1008 -> 1168 ;
1169 [label="X[5] <= 2331.0\nmse = 0.1094\nsamples = 8\nvalue = 0.125"] ;
1168 -> 1169 ;
1170 [label="mse = 0.1875\nsamples = 4\nvalue = 0.25"] ;
1169 -> 1170 ;
1171 [label="mse = 0.0\nsamples = 4\nvalue = 0.0"] ;
1169 -> 1171 ;
1172 [label="X[5] <= 10000.5\nmse = 1.2\nsamples = 10\nvalue = 1.0"] ;
1168 -> 1172 ;
1173 [label="mse = 2.25\nsamples = 4\nvalue = 1.5"] ;
1172 -> 1173 ;
1174 [label="mse = 0.2222\nsamples = 6\nvalue = 0.6667"] ;
1172 -> 1174 ;
1175 [label="X[1] <= 6984.0\nmse = 2.1118\nsamples = 117\nvalue = 1.1282"] ;
1007 -> 1175 ;
1176 [label="X[1] <= 3155.0\nmse = 1.7452\nsamples = 19\nvalue = 2.2105"] ;
1175 -> 1176 ;
1177 [label="mse = 1.44\nsamples = 5\nvalue = 0.6"] ;
1176 -> 1177 ;
1178 [label="X[1] <= 5552.0\nmse = 0.5969\nsamples = 14\nvalue = 2.7857"] ;
1176 -> 1178 ;
1179 [label="mse = 1.6875\nsamples = 4\nvalue = 2.25"] ;
1178 -> 1179 ;
1180 [label="mse = 0.0\nsamples = 10\nvalue = 3.0"] ;
1178 -> 1180 ;
1181 [label="X[1] <= 20251.0\nmse = 1.9117\nsamples = 98\nvalue = 0.9184"] ;
1175 -> 1181 ;
1182 [label="X[3] <= 832.0\nmse = 1.7503\nsamples = 87\nvalue = 0.7931"] ;
1181 -> 1182 ;
1183 [label="X[5] <= 7554.0\nmse = 1.5834\nsamples = 79\nvalue = 0.6835"] ;
1182 -> 1183 ;
1184 [label="X[1] <= 11417.0\nmse = 2.0663\nsamples = 42\nvalue = 1.0714"] ;
1183 -> 1184 ;
1185 [label="X[5] <= 6921.0\nmse = 0.9343\nsamples = 17\nvalue = 0.3529"] ;
1184 -> 1185 ;
1186 [label="X[1] <= 8639.0\nmse = 1.3388\nsamples = 11\nvalue = 0.5455"] ;
1185 -> 1186 ;
1187 [label="mse = 0.0\nsamples = 6\nvalue = 0.0"] ;
1186 -> 1187 ;
1188 [label="mse = 2.16\nsamples = 5\nvalue = 1.2"] ;
1186 -> 1188 ;
1189 [label="mse = 0.0\nsamples = 6\nvalue = 0.0"] ;
1185 -> 1189 ;
1190 [label="X[5] <= 7026.5\nmse = 2.2464\nsamples = 25\nvalue = 1.56"] ;
1184 -> 1190 ;
1191 [label="X[1] <= 17631.0\nmse = 2.1939\nsamples = 19\nvalue = 1.2632"] ;
1190 -> 1191 ;
1192 [label="X[5] <= 3966.5\nmse = 1.89\nsamples = 10\nvalue = 0.9"] ;
1191 -> 1192 ;
1193 [label="mse = 2.16\nsamples = 5\nvalue = 1.2"] ;
1192 -> 1193 ;
1194 [label="mse = 1.44\nsamples = 5\nvalue = 0.6"] ;
1192 -> 1194 ;
1195 [label="X[2] <= 8.5\nmse = 2.2222\nsamples = 9\nvalue = 1.6667"] ;
1191 -> 1195 ;
1196 [label="mse = 1.6875\nsamples = 4\nvalue = 2.25"] ;
1195 -> 1196 ;
1197 [label="mse = 2.16\nsamples = 5\nvalue = 1.2"] ;
1195 -> 1197 ;
1198 [label="mse = 1.25\nsamples = 6\nvalue = 2.5"] ;
1190 -> 1198 ;
1199 [label="X[1] <= 9959.0\nmse = 0.6706\nsamples = 37\nvalue = 0.2432"] ;
1183 -> 1199 ;
1200 [label="X[5] <= 9778.0\nmse = 1.5556\nsamples = 9\nvalue = 0.6667"] ;
1199 -> 1200 ;
1201 [label="mse = 2.25\nsamples = 4\nvalue = 1.5"] ;
1200 -> 1201 ;
1202 [label="mse = 0.0\nsamples = 5\nvalue = 0.0"] ;
1200 -> 1202 ;
1203 [label="X[4] <= 55.5\nmse = 0.3099\nsamples = 28\nvalue = 0.1071"] ;
1199 -> 1203 ;
1204 [label="X[2] <= 9.5\nmse = 0.8889\nsamples = 9\nvalue = 0.3333"] ;
1203 -> 1204 ;
1205 [label="mse = 0.0\nsamples = 5\nvalue = 0.0"] ;
1204 -> 1205 ;
1206 [label="mse = 1.6875\nsamples = 4\nvalue = 0.75"] ;
1204 -> 1206 ;
1207 [label="mse = 0.0\nsamples = 19\nvalue = 0.0"] ;
1203 -> 1207 ;
1208 [label="X[2] <= 9.5\nmse = 2.1094\nsamples = 8\nvalue = 1.875"] ;
1182 -> 1208 ;
1209 [label="mse = 0.0\nsamples = 4\nvalue = 3.0"] ;
1208 -> 1209 ;
1210 [label="mse = 1.6875\nsamples = 4\nvalue = 0.75"] ;
1208 -> 1210 ;
1211 [label="X[2] <= 9.5\nmse = 2.0826\nsamples = 11\nvalue = 1.9091"] ;
1181 -> 1211 ;
1212 [label="mse = 1.6875\nsamples = 4\nvalue = 0.75"] ;
1211 -> 1212 ;
1213 [label="mse = 1.102\nsamples = 7\nvalue = 2.5714"] ;
1211 -> 1213 ;
1214 [label="X[1] <= 13281.5\nmse = 1.297\nsamples = 49\nvalue = 2.2653"] ;
1006 -> 1214 ;
1215 [label="X[5] <= 11079.5\nmse = 0.9156\nsamples = 30\nvalue = 2.5333"] ;
1214 -> 1215 ;
1216 [label="X[5] <= 8653.5\nmse = 0.5207\nsamples = 26\nvalue = 2.6923"] ;
1215 -> 1216 ;
1217 [label="X[5] <= 7535.5\nmse = 0.8889\nsamples = 12\nvalue = 2.3333"] ;
1216 -> 1217 ;
1218 [label="X[5] <= 4934.0\nmse = 0.4375\nsamples = 8\nvalue = 2.75"] ;
1217 -> 1218 ;
1219 [label="mse = 0.75\nsamples = 4\nvalue = 2.5"] ;
1218 -> 1219 ;
1220 [label="mse = 0.0\nsamples = 4\nvalue = 3.0"] ;
1218 -> 1220 ;
1221 [label="mse = 0.75\nsamples = 4\nvalue = 1.5"] ;
1217 -> 1221 ;
1222 [label="mse = 0.0\nsamples = 14\nvalue = 3.0"] ;
1216 -> 1222 ;
1223 [label="mse = 2.25\nsamples = 4\nvalue = 1.5"] ;
1215 -> 1223 ;
1224 [label="X[1] <= 17503.5\nmse = 1.6066\nsamples = 19\nvalue = 1.8421"] ;
1214 -> 1224 ;
1225 [label="mse = 1.36\nsamples = 5\nvalue = 0.8"] ;
1224 -> 1225 ;
1226 [label="X[1] <= 20763.0\nmse = 1.1684\nsamples = 14\nvalue = 2.2143"] ;
1224 -> 1226 ;
1227 [label="X[2] <= 9.5\nmse = 1.29\nsamples = 10\nvalue = 1.9"] ;
1226 -> 1227 ;
1228 [label="mse = 0.8889\nsamples = 6\nvalue = 2.3333"] ;
1227 -> 1228 ;
1229 [label="mse = 1.1875\nsamples = 4\nvalue = 1.25"] ;
1227 -> 1229 ;
1230 [label="mse = 0.0\nsamples = 4\nvalue = 3.0"] ;
1226 -> 1230 ;
1231 [label="X[3] <= 955.0\nmse = 1.6309\nsamples = 247\nvalue = 0.7287"] ;
847 -> 1231 ;
1232 [label="X[1] <= 16360.0\nmse = 1.3086\nsamples = 164\nvalue = 0.5488"] ;
1231 -> 1232 ;
1233 [label="X[2] <= 9.5\nmse = 1.1111\nsamples = 139\nvalue = 0.4532"] ;
1232 -> 1233 ;
1234 [label="X[2] <= 8.5\nmse = 0.6046\nsamples = 71\nvalue = 0.2394"] ;
1233 -> 1234 ;
1235 [label="X[1] <= 8621.5\nmse = 0.9132\nsamples = 44\nvalue = 0.3636"] ;
1234 -> 1235 ;
1236 [label="X[5] <= 6635.0\nmse = 0.6837\nsamples = 37\nvalue = 0.2703"] ;
1235 -> 1236 ;
1237 [label="mse = 0.0\nsamples = 20\nvalue = 0.0"] ;
1236 -> 1237 ;
1238 [label="X[5] <= 10772.0\nmse = 1.301\nsamples = 17\nvalue = 0.5882"] ;
1236 -> 1238 ;
1239 [label="X[5] <= 8343.5\nmse = 1.6389\nsamples = 12\nvalue = 0.8333"] ;
1238 -> 1239 ;
1240 [label="mse = 1.102\nsamples = 7\nvalue = 0.4286"] ;
1239 -> 1240 ;
1241 [label="mse = 1.84\nsamples = 5\nvalue = 1.4"] ;
1239 -> 1241 ;
1242 [label="mse = 0.0\nsamples = 5\nvalue = 0.0"] ;
1238 -> 1242 ;
1243 [label="mse = 1.8367\nsamples = 7\nvalue = 0.8571"] ;
1235 -> 1243 ;
1244 [label="X[1] <= 11835.5\nmse = 0.0357\nsamples = 27\nvalue = 0.037"] ;
1234 -> 1244 ;
1245 [label="mse = 0.0\nsamples = 22\nvalue = 0.0"] ;
1244 -> 1245 ;
1246 [label="mse = 0.16\nsamples = 5\nvalue = 0.2"] ;
1244 -> 1246 ;
1247 [label="X[1] <= 8679.5\nmse = 1.5424\nsamples = 68\nvalue = 0.6765"] ;
1233 -> 1247 ;
1248 [label="X[1] <= 4855.5\nmse = 1.7929\nsamples = 54\nvalue = 0.8519"] ;
1247 -> 1248 ;
1249 [label="X[5] <= 9425.5\nmse = 1.349\nsamples = 38\nvalue = 0.5789"] ;
1248 -> 1249 ;
1250 [label="X[4] <= 55.5\nmse = 0.7066\nsamples = 24\nvalue = 0.2917"] ;
1249 -> 1250 ;
1251 [label="mse = 1.6875\nsamples = 4\nvalue = 0.75"] ;
1250 -> 1251 ;
1252 [label="X[5] <= 1767.5\nmse = 0.46\nsamples = 20\nvalue = 0.2"] ;
1250 -> 1252 ;
1253 [label="mse = 1.44\nsamples = 5\nvalue = 0.6"] ;
1252 -> 1253 ;
1254 [label="X[5] <= 7117.0\nmse = 0.0622\nsamples = 15\nvalue = 0.0667"] ;
1252 -> 1254 ;
1255 [label="mse = 0.0\nsamples = 11\nvalue = 0.0"] ;
1254 -> 1255 ;
1256 [label="mse = 0.1875\nsamples = 4\nvalue = 0.25"] ;
1254 -> 1256 ;
1257 [label="X[3] <= 917.5\nmse = 2.0663\nsamples = 14\nvalue = 1.0714"] ;
1249 -> 1257 ;
1258 [label="mse = 0.0\nsamples = 4\nvalue = 0.0"] ;
1257 -> 1258 ;
1259 [label="X[5] <= 11715.5\nmse = 2.25\nsamples = 10\nvalue = 1.5"] ;
1257 -> 1259 ;
1260 [label="mse = 1.6875\nsamples = 4\nvalue = 0.75"] ;
1259 -> 1260 ;
1261 [label="mse = 2.0\nsamples = 6\nvalue = 2.0"] ;
1259 -> 1261 ;
1262 [label="X[1] <= 5773.5\nmse = 2.25\nsamples = 16\nvalue = 1.5"] ;
1248 -> 1262 ;
1263 [label="mse = 1.6875\nsamples = 4\nvalue = 2.25"] ;
1262 -> 1263 ;
1264 [label="X[5] <= 8308.5\nmse = 2.1875\nsamples = 12\nvalue = 1.25"] ;
1262 -> 1264 ;
1265 [label="X[1] <= 8621.5\nmse = 1.6875\nsamples = 8\nvalue = 0.75"] ;
1264 -> 1265 ;
1266 [label="mse = 1.6875\nsamples = 4\nvalue = 0.75"] ;
1265 -> 1266 ;
1267 [label="mse = 1.6875\nsamples = 4\nvalue = 0.75"] ;
1265 -> 1267 ;
1268 [label="mse = 1.6875\nsamples = 4\nvalue = 2.25"] ;
1264 -> 1268 ;
1269 [label="mse = 0.0\nsamples = 14\nvalue = 0.0"] ;
1247 -> 1269 ;
1270 [label="X[5] <= 3115.0\nmse = 2.0736\nsamples = 25\nvalue = 1.08"] ;
1232 -> 1270 ;
1271 [label="mse = 1.44\nsamples = 5\nvalue = 2.4"] ;
1270 -> 1271 ;
1272 [label="X[3] <= 917.0\nmse = 1.6875\nsamples = 20\nvalue = 0.75"] ;
1270 -> 1272 ;
1273 [label="mse = 2.0\nsamples = 6\nvalue = 2.0"] ;
1272 -> 1273 ;
1274 [label="X[5] <= 6975.5\nmse = 0.5969\nsamples = 14\nvalue = 0.2143"] ;
1272 -> 1274 ;
1275 [label="mse = 0.0\nsamples = 7\nvalue = 0.0"] ;
1274 -> 1275 ;
1276 [label="mse = 1.102\nsamples = 7\nvalue = 0.4286"] ;
1274 -> 1276 ;
1277 [label="X[4] <= 55.5\nmse = 2.0772\nsamples = 83\nvalue = 1.0843"] ;
1231 -> 1277 ;
1278 [label="mse = 0.0\nsamples = 14\nvalue = 0.0"] ;
1277 -> 1278 ;
1279 [label="X[5] <= 3047.0\nmse = 2.2117\nsamples = 69\nvalue = 1.3043"] ;
1277 -> 1279 ;
1280 [label="X[5] <= 1419.5\nmse = 1.9172\nsamples = 13\nvalue = 2.0769"] ;
1279 -> 1280 ;
1281 [label="X[5] <= 760.5\nmse = 2.25\nsamples = 8\nvalue = 1.5"] ;
1280 -> 1281 ;
1282 [label="mse = 1.6875\nsamples = 4\nvalue = 2.25"] ;
1281 -> 1282 ;
1283 [label="mse = 1.6875\nsamples = 4\nvalue = 0.75"] ;
1281 -> 1283 ;
1284 [label="mse = 0.0\nsamples = 5\nvalue = 3.0"] ;
1280 -> 1284 ;
1285 [label="X[5] <= 7404.5\nmse = 2.1094\nsamples = 56\nvalue = 1.125"] ;
1279 -> 1285 ;
1286 [label="X[2] <= 10.5\nmse = 1.102\nsamples = 14\nvalue = 0.4286"] ;
1285 -> 1286 ;
1287 [label="mse = 0.0\nsamples = 10\nvalue = 0.0"] ;
1286 -> 1287 ;
1288 [label="mse = 2.25\nsamples = 4\nvalue = 1.5"] ;
1286 -> 1288 ;
1289 [label="X[5] <= 13133.5\nmse = 2.2296\nsamples = 42\nvalue = 1.3571"] ;
1285 -> 1289 ;
1290 [label="X[1] <= 9141.5\nmse = 2.25\nsamples = 38\nvalue = 1.5"] ;
1289 -> 1290 ;
1291 [label="X[2] <= 9.5\nmse = 1.8685\nsamples = 17\nvalue = 0.8824"] ;
1290 -> 1291 ;
